2708 50
35 0.0 0.0 0.0 0.0 0.0 0.0 0.0 0.0 0.03832942247390747 0.0013346821069717407 0.0 0.0 0.0 0.0 0.0 0.0 0.045561179518699646 0.2574002742767334 0.0 0.0 0.0 0.0 0.0 0.0 0.0 0.0 0.26504209637641907 0.23331508040428162 0.28170666098594666 0.12963487207889557 0.0 0.25874853134155273 0.0 0.0 0.0 0.0 0.0 0.0 0.0 0.0 0.0 0.0 0.0 0.0 0.0 0.0 0.0 0.0 0.0 0.0
1033 0.0 0.0 0.0 0.0 0.32682284712791443 0.0 0.0 0.07828903198242188 0.0 0.0 0.0 0.0 0.0 0.0 0.0 0.0 0.18486544489860535 0.0 0.0 0.0 0.0 0.0 0.10556069016456604 0.0 0.0 0.05786101520061493 0.3342132866382599 0.0 0.3562944531440735 0.16242152452468872 0.0 0.0 0.0 0.0 0.0 0.0 0.0 0.0 0.15434077382087708 0.0 0.06930691003799438 0.0 0.1246117651462555 0.0 0.0 0.0 0.0 0.0 0.0 0.0
103482 0.0 0.0 0.0 0.0 0.20867738127708435 0.0 0.0 0.0 0.19621676206588745 0.21665002405643463 0.0 0.0 0.0 0.0 0.0 0.0 0.0 0.13400132954120636 0.0 0.0 0.0 0.0 0.1266358196735382 0.0 0.0 0.16356229782104492 0.24966225028038025 0.0 0.32119297981262207 0.0 0.0 0.0 0.0 0.0 0.0 0.0 0.0 0.0 0.13323864340782166 0.0 0.05442826449871063 0.0 0.24059507250785828 0.0 0.0 0.0 0.0 0.0 0.0 0.0
103515 0.0 0.0 0.0 0.0 0.0 0.0 0.0 0.0 0.0 0.16117353737354279 0.0 0.0 0.0 0.0 0.0 0.23253513872623444 0.0 0.0 0.0 0.2643008232116699 0.0 0.0 0.0 0.1590547412633896 0.0 0.0 0.2664705514907837 0.3413096070289612 0.24081921577453613 0.2418995201587677 0.0 0.0 0.21405087411403656 0.0 0.0 0.0 0.05796351656317711 0.0 0.0 0.0 0.2687864303588867 0.0 0.0 0.0 0.0 0.0 0.0 0.0 0.0 0.0
1050679 0.0 0.0 0.0 0.0 0.3057224154472351 0.14567513763904572 0.0 0.08333279192447662 0.21326828002929688 0.07110041379928589 0.0 0.0 0.0 0.0 0.0 0.0 0.0 0.0 0.0 0.0 0.0 0.0 0.18509966135025024 0.0 0.0 0.0 0.3121846318244934 0.22734004259109497 0.04368744045495987 0.0031956136226654053 0.0 0.0 0.029416710138320923 0.0 0.0 0.0 0.0 0.0 0.22484667599201202 0.0 0.08482493460178375 0.0 0.39288821816444397 0.0 0.0 0.0 0.0 0.0 0.0 0.21032960712909698
1103960 0.13310159742832184 0.0 0.0 0.0 0.0 0.0 0.0 0.0 0.22102952003479004 0.3794648051261902 0.0 0.0 0.0 0.0 0.0 0.0 0.0 0.0 0.0 0.05553106963634491 0.0 0.0 0.0 0.0 0.0 0.08837984502315521 0.2696804404258728 0.0 0.1933390200138092 0.0 0.0 0.0 0.033757954835891724 0.0 0.0 0.0 0.0 0.0 0.0 0.0 0.1781250238418579 0.0 0.26448917388916016 0.0 0.0 0.0 0.0 0.0 0.0 0.0
1103985 0.0 0.0 0.0 0.0 0.16395451128482819 0.0 0.0 0.1469966471195221 0.0 0.17474240064620972 0.0 0.0 0.0 0.0 0.0 0.0 0.11302074790000916 0.1305159479379654 0.0 0.0 0.0 0.0 0.0 0.0 0.0 0.20902562141418457 0.21571888029575348 0.11822190880775452 0.13944877684116364 0.0 0.0 0.0 0.21034863591194153 0.0 0.0 0.0 0.0 0.0 0.0 0.0 0.0886867493391037 0.0 0.11902271211147308 0.0 0.0 0.0 0.0 0.0 0.0 0.0
1109199 0.0 0.0 0.0 0.0 0.21749965846538544 0.0 0.0 0.16077867150306702 0.0 0.025922268629074097 0.0 0.0 0.0 0.0 0.0 0.189978688955307 0.19077609479427338 0.017722755670547485 0.0 0.11750181019306183 0.0 0.0 0.0 0.05600927770137787 0.0 0.0 0.18997634947299957 0.13290967047214508 0.21770620346069336 0.1449308842420578 0.07463904470205307 0.0 0.0 0.0 0.0 0.0 0.0 0.0 0.0 0.0 0.0 0.0 0.23107320070266724 0.0 0.0 0.0 0.0 0.0 0.0 0.0
1112911 0.0 0.0 0.0 0.0 0.09933337569236755 0.0 0.0 0.20201842486858368 0.0 0.12851431965827942 0.0 0.0 0.0 0.0 0.0 0.15804143249988556 0.26142027974128723 0.0 0.0 0.19701045751571655 0.0 0.0 0.0 0.14916843175888062 0.0 0.0 0.3979436159133911 0.10188543796539307 0.303986132144928 0.3041715919971466 0.0 0.0 0.021116316318511963 0.0 0.0 0.0 0.08692418038845062 0.0 0.16851718723773956 0.0 0.1684814691543579 0.0 0.0 0.0 0.0 0.0 0.0 0.0 0.0 0.0
1113438 0.0 0.0 0.0 0.0 0.21473732590675354 0.0 0.0 0.0 0.0 0.0 0.0 0.0 0.0 0.0 0.0 0.0 0.0 0.0 0.0 0.14959250390529633 0.0 0.0 0.0811239555478096 0.1124938353896141 0.0 0.0 0.5378612279891968 0.0 0.2501968741416931 0.07214964926242828 0.0 0.0 0.0 0.0 0.0 0.0 0.0611792728304863 0.0 0.24895648658275604 0.0 0.16960784792900085 0.0 0.23309952020645142 0.0 0.0 0.0 0.0 0.0 0.0 0.0
1113831 0.0 0.0 0.0 0.0 0.07924473285675049 0.0 0.0 0.22048407793045044 0.08059456944465637 0.16002631187438965 0.0 0.0 0.0 0.0 0.0 0.19083082675933838 0.0 0.19581478834152222 0.0 0.21373873949050903 0.0 0.0 0.10040467232465744 0.0 0.0 0.16133461892604828 0.19788318872451782 0.0 0.37132689356803894 0.0 0.007966369390487671 0.0 0.0 0.0 0.0 0.0 0.0 0.0 0.0 0.0 0.0 0.0 0.14921699464321136 0.0 0.0 0.014887586236000061 0.0 0.0 0.0 0.0
1114331 0.0 0.0 0.0 0.0 0.12813836336135864 0.0 0.0 0.17622141540050507 0.0 0.21414455771446228 0.0 0.0 0.0 0.0 0.0 0.0 0.047769591212272644 0.0 0.0 0.2295973151922226 0.0 0.0 0.0 0.1926233470439911 0.0 0.09624560922384262 0.14906777441501617 0.3695363998413086 0.3528841733932495 0.0 0.029443025588989258 0.0 0.0583823025226593 0.0 0.0 0.0 0.0 0.0 0.0 0.0 0.0 0.0 0.21276944875717163 0.0 0.0 0.0 0.0 0.0 0.0 0.0
1117476 0.0 0.0 0.0 0.0 0.2835276126861572 0.0 0.0 0.07605090737342834 0.0 0.006140470504760742 0.0 0.0 0.0 0.0 0.0 0.31981605291366577 0.18258589506149292 0.20664994418621063 0.0 0.1419880986213684 0.0 0.0 0.0 0.08046413958072662 0.0 0.007110781967639923 0.3581516146659851 0.0 0.19865399599075317 0.11696821451187134 0.0 0.0 0.20082266628742218 0.0 0.0 0.0 0.018249988555908203 0.0 0.08125430345535278 0.0 0.0 0.0 0.0 0.0 0.0 0.0 0.0 0.0 0.0 0.0
1119505 0.0 0.0 0.0 0.0 0.15135420858860016 0.0 0.0 0.11897523701190948 0.08896216750144958 0.134479358792305 0.0 0.0 0.0 0.0 0.0 0.1274365782737732 0.13607312738895416 0.05988618731498718 0.0 0.12831656634807587 0.0 0.0 0.08039822429418564 0.04435732960700989 0.0 0.12774409353733063 0.1898433119058609 0.15386900305747986 0.2223840355873108 0.12152627110481262 0.09877386689186096 0.0 0.12598469853401184 0.0 0.0 0.0 0.014608293771743774 0.0 0.10594602674245834 0.0 0.10067883878946304 0.0 0.1233835220336914 0.0 0.0 0.0 0.0 0.0 0.0 0.0
1119708 0.0 0.0 0.0 0.0 0.10281505435705185 0.0 0.0 0.0 0.007938966155052185 0.2328343242406845 0.0 0.0 0.0 0.0 0.0 0.18915870785713196 0.0 0.2963660955429077 0.0 0.07826493680477142 0.0 0.0 0.0 0.010805144906044006 0.0 0.3280102610588074 0.1937848925590515 0.2602046728134155 0.3710346817970276 0.0 0.0 0.0 0.08663065731525421 0.0 0.0 0.0 0.0 0.0 0.0 0.0 0.0 0.0 0.0 0.0 0.0 0.0 0.0 0.0 0.0 0.0
1120431 0.0 0.0 0.0 0.0 0.0 0.0 0.0 0.11486397683620453 0.17069818079471588 0.15216845273971558 0.0 0.0 0.0 0.0 0.0 0.1846047043800354 0.19427227973937988 0.23841819167137146 0.0 0.37311631441116333 0.0 0.0 0.0 0.1737963706254959 0.0 0.0 0.0 0.07440206408500671 0.34886324405670166 0.06446069478988647 0.0 0.0 0.0 0.0 0.0 0.0 0.0674244686961174 0.0 0.0 0.0 0.09607460349798203 0.0 0.017574220895767212 0.0 0.0 0.0 0.0 0.0 0.0 0.0
1123756 0.0 0.0 0.0 0.0 0.08718270063400269 0.0 0.0 0.167800635099411 0.045624300837516785 0.12195004522800446 0.0 0.0 0.0 0.0 0.0 0.0 0.0 0.18077030777931213 0.0 0.44753962755203247 0.0 0.0 0.10815431922674179 0.0 0.0 0.30192631483078003 0.3013991713523865 0.11328677833080292 0.29396677017211914 0.0 0.0 0.0 0.13223111629486084 0.0 0.0 0.0 0.012951701879501343 0.0 0.0 0.0 0.1358145773410797 0.0 0.0 0.0 0.0 0.0 0.0 0.0 0.0 0.0
1125386 0.10598857700824738 0.0 0.0 0.0 0.20356711745262146 0.0 0.0 0.010892346501350403 0.0977804884314537 0.0 0.0 0.0 0.0 0.0 0.0 0.0 0.060326263308525085 0.0 0.0 0.16923262178897858 0.0 0.0 0.06473446637392044 0.008222341537475586 0.0 0.160182923078537 0.0 0.08129875361919403 0.21860554814338684 0.0 0.0 0.0 0.17914094030857086 0.0 0.0 0.0 0.0 0.0 0.0 0.0 0.13751175999641418 0.0 0.11522887647151947 0.0 0.0 0.0 0.0 0.0 0.0 0.0
1127430 0.0 0.0 0.0 0.0 0.18899552524089813 0.0 0.0 0.17385683953762054 0.08638899028301239 0.0810731053352356 0.0 0.0 0.0 0.0 0.0 0.0 0.10197329521179199 0.12493335455656052 0.0 0.1874239146709442 0.0 0.0 0.0 0.08494094759225845 0.0 0.12853097915649414 0.15995819866657257 0.2216203510761261 0.28202497959136963 0.0 0.0 0.0 0.08817090839147568 0.0 0.0 0.0 0.0 0.0 0.0 0.0 0.06381136178970337 0.0 0.250863641500473 0.0 0.0 0.0 0.0 0.0 0.0 0.0
1127913 0.0 0.0 0.0 0.0 0.03753665089607239 0.0 0.0 0.0 0.0 0.0 0.0 0.0 0.0 0.0 0.0 0.17498859763145447 0.1128842681646347 0.25110992789268494 0.0 0.20293700695037842 0.0 0.0 0.0 0.2017500102519989 0.0 0.19298473000526428 0.19400228559970856 0.30226844549179077 0.30926287174224854 0.0 0.0 0.0 0.2573021352291107 0.0 0.0 0.0 0.0 0.0 0.0 0.0 0.18761959671974182 0.0 0.0 0.0 0.0 0.0 0.0 0.0 0.0 0.0
1128204 0.0 0.0 0.0 0.0 0.22590087354183197 0.010695576667785645 0.0 0.055929139256477356 0.0 0.29913127422332764 0.0 0.0 0.0 0.0 0.0 0.08808234333992004 0.22549252212047577 0.08225421607494354 0.0 0.09819763898849487 0.0 0.0 0.0 0.02770090103149414 0.0 0.034954335540533066 0.21752628684043884 0.043223246932029724 0.1023864671587944 0.04288460314273834 0.0 0.0 0.2397705614566803 0.0 0.0 0.0 0.0 0.0 0.0 0.0 0.030047282576560974 0.0 0.0 0.0 0.0 0.0 0.0 0.0 0.0 0.0
1128227 0.14676852524280548 0.0 0.0 0.0 0.07041248679161072 0.0 0.0 0.0 0.17687523365020752 0.18386077880859375 0.0 0.0 0.0 0.0 0.0 0.07913760095834732 0.0 0.09441588819026947 0.0 0.11604009568691254 0.0 0.0 0.0 0.010772645473480225 0.0 0.1896897405385971 0.1639573872089386 0.24950960278511047 0.20645534992218018 0.0 0.0 0.0 0.23291698098182678 0.0 0.0 0.0 0.0 0.0 0.0 0.0 0.2912440001964569 0.0 0.030314087867736816 0.0 0.0 0.0 0.0 0.0 0.0 0.0
1128314 0.06623701751232147 0.0 0.0 0.0 0.1116839051246643 0.0 0.0 0.0 0.0 0.0 0.0 0.0 0.0 0.0 0.0 0.21039044857025146 0.12725433707237244 0.10905861109495163 0.0 0.1932840645313263 0.0 0.0 0.0 0.14973580837249756 0.0 0.1619648039340973 0.23746423423290253 0.2501092851161957 0.24075140058994293 0.04394683241844177 0.0 0.0 0.2576228380203247 0.0 0.0 0.0 0.0 0.0 0.0 0.0 0.2123769223690033 0.0 0.0 0.0 0.0 0.0 0.0 0.0 0.0 0.0
1128453 0.0 0.0 0.0 0.0 0.24162939190864563 0.0 0.0 0.16754150390625 0.0 0.0 0.0 0.0 0.0 0.0 0.0 0.09861744940280914 0.0 0.30979377031326294 0.0 0.23712770640850067 0.0 0.0 0.0 0.0 0.0 0.0 0.17108193039894104 0.0 0.3744410574436188 0.0 0.0 0.0 0.0 0.0 0.0 0.0 0.0 0.0 0.0 0.0 0.06958286464214325 0.0 0.21935629844665527 0.0 0.0 0.0 0.0 0.0 0.0 0.0
1128945 0.0 0.0 0.0 0.0 0.19621588289737701 0.0 0.0 0.1201876848936081 0.10081446915864944 0.14413636922836304 0.0 0.0 0.0 0.0 0.0 0.11269420385360718 0.12354105710983276 0.09145158529281616 0.0 0.14612706005573273 0.0 0.0 0.09039073437452316 0.06524974852800369 0.0 0.11686544865369797 0.20393869280815125 0.19502483308315277 0.23089417815208435 0.1057196706533432 0.06951923668384552 0.0 0.1283305436372757 0.0 0.0 0.0 0.0 0.0 0.09472107887268066 0.0 0.10726113617420197 0.0 0.1316610723733902 0.0 0.0 0.0 0.0 0.0 0.0 0.0
1128959 0.0 0.0 0.0 0.0 0.1041884794831276 0.0 0.0 0.0 0.0 0.0 0.0 0.0 0.0 0.0 0.0 0.04700585454702377 0.4565991759300232 0.04059572517871857 0.0 0.2276713252067566 0.0 0.0 0.0 0.032746732234954834 0.0 0.11618736386299133 0.15272320806980133 0.0 0.2923666834831238 0.0005724430084228516 0.0 0.0 0.0 0.0 0.0 0.0 0.0 0.0 0.0 0.0 0.1216394379734993 0.0 0.0 0.0 0.0 0.0 0.0 0.0 0.0 0.0
1128985 0.0 0.0 0.0 0.0 0.4176943302154541 0.0 0.0 0.19183753430843353 0.0 0.0 0.0 0.0 0.0 0.0 0.0 0.24206480383872986 0.25614073872566223 0.289558470249176 0.0 0.2237027883529663 0.0 0.0 0.0 0.0 0.0 0.0 0.2834623157978058 0.0 0.2288794368505478 0.0 0.0 0.0 0.048817992210388184 0.0 0.0 0.0 0.0 0.0 0.0 0.0 0.0 0.0 0.0 0.0 0.0 0.0 0.0 0.0 0.0 0.0
1129018 0.0 0.0 0.0 0.0 0.18577183783054352 0.0 0.0 0.2230445146560669 0.07839919626712799 0.09141800552606583 0.0 0.0 0.0 0.0 0.0 0.29025378823280334 0.03549070656299591 0.020181164145469666 0.0 0.197475865483284 0.0 0.0 0.0 0.15155558288097382 0.0 0.0 0.22525551915168762 0.16137322783470154 0.30574774742126465 0.1529197096824646 0.14919905364513397 0.0 0.06310763955116272 0.0 0.0 0.0 0.0 0.0 0.048371583223342896 0.0 0.0 0.0 0.1188431978225708 0.0 0.0 0.0 0.0 0.0 0.0 0.0
1129027 0.0 0.0 0.0 0.0 0.18899552524089813 0.0 0.0 0.17385683953762054 0.08638899028301239 0.0810731053352356 0.0 0.0 0.0 0.0 0.0 0.0 0.10197329521179199 0.12493335455656052 0.0 0.1874239146709442 0.0 0.0 0.0 0.08494094759225845 0.0 0.12853097915649414 0.15995819866657257 0.2216203510761261 0.28202497959136963 0.0 0.0 0.0 0.08817090839147568 0.0 0.0 0.0 0.0 0.0 0.0 0.0 0.06381136178970337 0.0 0.250863641500473 0.0 0.0 0.0 0.0 0.0 0.0 0.0
1129573 0.0 0.0 0.0 0.0 0.057167887687683105 0.01784171164035797 0.0 0.0 0.0 0.07165835052728653 0.0 0.0 0.0 0.0 0.0 0.0 0.3203352987766266 0.015161186456680298 0.0 0.24043196439743042 0.0 0.0 0.0 0.14722928404808044 0.0 0.0 0.25033262372016907 0.048250168561935425 0.11978999525308609 0.0 0.0 0.0 0.17756099998950958 0.0 0.0 0.0 0.0 0.0 0.0 0.0 0.010220363736152649 0.0 0.255346417427063 0.0 0.0 0.0 0.0 0.0 0.0 0.0
1129683 0.0 0.0 0.0 0.0 0.2700183391571045 0.0 0.0 0.11583954840898514 0.0 0.08861245214939117 0.0 0.0 0.0 0.0 0.0 0.22918394207954407 0.2581530511379242 0.305444598197937 0.0 0.2136286050081253 0.0 0.0 0.0 0.24096690118312836 0.0 0.14774450659751892 0.31131571531295776 0.35169678926467896 0.317507803440094 0.0 0.0 0.0 0.10045051574707031 0.0 0.0 0.0 0.0 0.0 0.0 0.0 0.0 0.0 0.0 0.0 0.0 0.0 0.01918056607246399 0.0 0.0 0.0
1129778 0.05112601816654205 0.0 0.0 0.0 0.15688136219978333 0.0 0.0 0.0 0.0 0.0 0.0 0.0 0.0 0.0 0.0 0.2000543773174286 0.0 0.0 0.0 0.2845222055912018 0.0 0.0 0.0 0.1761426329612732 0.0 0.0 0.20844635367393494 0.2418455332517624 0.26570993661880493 0.0 0.0 0.0 0.2562900483608246 0.0 0.0 0.0 0.0 0.0 0.0 0.0 0.22477172315120697 0.0 0.0 0.0 0.0 0.0 0.0 0.0 0.0 0.0
1130847 0.0 0.0 0.0 0.0 0.19046495854854584 0.0 0.0 0.10827790945768356 0.0825757086277008 0.1568823754787445 0.0 0.0 0.0 0.0 0.0 0.014389201998710632 0.0 0.20488597452640533 0.0 0.17948120832443237 0.0 0.0 0.1961621344089508 0.0 0.0 0.2708769142627716 0.26940545439720154 0.14159879088401794 0.2769494652748108 0.0 0.0 0.0 0.0961569994688034 0.0 0.0 0.0 0.0 0.0 0.14823316037654877 0.0 0.15745612978935242 0.0 0.0 0.0 0.0 0.0 0.0 0.0 0.0 0.0
1130856 0.0 0.0 0.0 0.0 0.21320189535617828 0.0 0.0 0.14458972215652466 0.07096359133720398 0.06181001663208008 0.0 0.0 0.0 0.0 0.0 0.0 0.0 0.16209551692008972 0.0 0.2570848762989044 0.0 0.0 0.1577017903327942 0.0 0.0 0.24086631834506989 0.276506632566452 0.13925901055335999 0.2940073609352112 0.0 0.0 0.0 0.11608283966779709 0.0 0.0 0.0 0.0 0.0 0.055331990122795105 0.0 0.13555127382278442 0.0 0.0 0.0 0.0 0.0 0.0 0.0 0.0 0.0
1131116 0.0 0.0 0.0 0.0 0.0635177344083786 0.0 0.0 0.025075070559978485 0.17490924894809723 0.3802531063556671 0.0 0.0 0.0 0.0 0.0 0.05727677047252655 0.0 0.0 0.0 0.38276809453964233 0.0 0.0 0.042863354086875916 0.2553577423095703 0.0 0.09691628068685532 0.1265678107738495 0.3866521716117859 0.33415281772613525 0.0 0.17848026752471924 0.0 0.16265009343624115 0.0 0.0 0.0 0.0 0.0 0.0 0.0 0.0 0.0 0.20224079489707947 0.0 0.0 0.0 0.0 0.0 0.0 0.0
1131360 0.10064513981342316 0.0 0.0 0.0 0.3245859444141388 0.0 0.0 0.16469806432724 0.0 0.025005191564559937 0.0 0.0 0.0 0.0 0.0 0.0 0.09983134269714355 0.30515503883361816 0.0 0.0 0.0 0.0 0.0 0.0 0.0 0.15987390279769897 0.21336978673934937 0.0 0.04201464354991913 0.0 0.0 0.0 0.13802891969680786 0.0 0.0 0.0 0.0 0.0 0.0 0.0 0.09370515495538712 0.0 0.1345294713973999 0.0 0.0 0.0 0.0 0.0 0.0 0.0
1131557 0.0 0.0 0.0 0.0 0.2308724969625473 0.0 0.0 0.11930521577596664 0.08322812616825104 0.15735465288162231 0.0 0.0 0.0 0.0 0.0 0.10054896771907806 0.1349991261959076 0.0774206593632698 0.0 0.11071126163005829 0.0 0.0 0.023563213646411896 0.03257785737514496 0.0 0.09064293652772903 0.20973336696624756 0.13575786352157593 0.2206556797027588 0.12205152213573456 0.0 0.0 0.11748836934566498 0.0 0.0 0.0 0.0 0.0 0.07722777128219604 0.0 0.10784023255109787 0.0 0.10527507960796356 0.0 0.0 0.0 0.0 0.0 0.0 0.0
1131752 0.0 0.0 0.0 0.0 0.19181056320667267 0.0 0.0 0.17349937558174133 0.07002242654561996 0.11267832666635513 0.0 0.0 0.0 0.0 0.0 0.09316147863864899 0.1456441879272461 0.06081082671880722 0.0 0.1589648276567459 0.0 0.0 0.10905854403972626 0.026078224182128906 0.0 0.13112568855285645 0.2094402015209198 0.19476793706417084 0.23349927365779877 0.06780003011226654 0.06566748023033142 0.0 0.07888617366552353 0.0 0.0 0.0 0.0 0.0 0.09661264717578888 0.0 0.07770407199859619 0.0 0.13969391584396362 0.0 0.0 0.0 0.0 0.0 0.0 0.0
1133196 0.0 0.0 0.0 0.0 0.12897634506225586 0.0 0.0 0.18332479894161224 0.0 0.0 0.0 0.0 0.0 0.0 0.0 0.0 0.06037053465843201 0.029692932963371277 0.0 0.10842819511890411 0.0 0.0 0.13309931755065918 0.0 0.0 0.26951828598976135 0.31952741742134094 0.0 0.3337644338607788 0.0 0.05449187755584717 0.0 0.0 0.0 0.0 0.0 0.0 0.0 0.05399391055107117 0.0 0.0 0.0 0.12996627390384674 0.0 0.0 0.0 0.0 0.0 0.0 0.0
1133338 0.0 0.0 0.0 0.0 0.16395451128482819 0.0 0.0 0.1469966471195221 0.0 0.17474240064620972 0.0 0.0 0.0 0.0 0.0 0.0 0.11302074790000916 0.1305159479379654 0.0 0.0 0.0 0.0 0.0 0.0 0.0 0.20902562141418457 0.21571888029575348 0.11822190880775452 0.13944877684116364 0.0 0.0 0.0 0.21034863591194153 0.0 0.0 0.0 0.0 0.0 0.0 0.0 0.0886867493391037 0.0 0.11902271211147308 0.0 0.0 0.0 0.0 0.0 0.0 0.0
1136814 0.0 0.0 0.0 0.0 0.15543274581432343 0.0 0.0 0.0 0.0 0.17189833521842957 0.0 0.0 0.0 0.0 0.0 0.0 0.09062749147415161 0.06349100172519684 0.0 0.0 0.0 0.0 0.0 0.0 0.0 0.2099682241678238 0.19962355494499207 0.18458330631256104 0.1363171637058258 0.0 0.0 0.0 0.10836261510848999 0.0 0.0 0.0 0.0 0.0 0.0 0.0 0.05906498432159424 0.0 0.1635097712278366 0.0 0.0 0.0 0.0 0.0 0.0 0.0
1137466 0.0 0.0 0.0 0.0 0.19621588289737701 0.0 0.0 0.1201876848936081 0.10081446915864944 0.14413636922836304 0.0 0.0 0.0 0.0 0.0 0.11269420385360718 0.12354105710983276 0.09145158529281616 0.0 0.14612706005573273 0.0 0.0 0.09039073437452316 0.06524974852800369 0.0 0.11686544865369797 0.20393869280815125 0.19502483308315277 0.23089417815208435 0.1057196706533432 0.06951923668384552 0.0 0.1283305436372757 0.0 0.0 0.0 0.0 0.0 0.09472107887268066 0.0 0.10726113617420197 0.0 0.1316610723733902 0.0 0.0 0.0 0.0 0.0 0.0 0.0
1152421 0.0 0.0 0.0 0.0 0.17294976115226746 0.0 0.0 0.14212816953659058 0.0 0.12548694014549255 0.0 0.0 0.0 0.0 0.0 0.0 0.0 0.24475142359733582 0.0 0.23058705031871796 0.0 0.0 0.0 0.1358913630247116 0.0 0.29200485348701477 0.1728103905916214 0.265135794878006 0.38334786891937256 0.0 0.0 0.0 0.10048578679561615 0.0 0.0 0.0 0.0 0.0 0.0 0.0 0.0 0.0 0.13336443901062012 0.0 0.0 0.0 0.0 0.0 0.0 0.0
1152508 0.0 0.0 0.0 0.0 0.19621588289737701 0.0 0.0 0.1201876848936081 0.10081446915864944 0.14413636922836304 0.0 0.0 0.0 0.0 0.0 0.11269420385360718 0.12354105710983276 0.09145158529281616 0.0 0.14612706005573273 0.0 0.0 0.09039073437452316 0.06524974852800369 0.0 0.11686544865369797 0.20393869280815125 0.19502483308315277 0.23089417815208435 0.1057196706533432 0.06951923668384552 0.0 0.1283305436372757 0.0 0.0 0.0 0.0 0.0 0.09472107887268066 0.0 0.10726113617420197 0.0 0.1316610723733902 0.0 0.0 0.0 0.0 0.0 0.0 0.0
1153065 0.0 0.0 0.0 0.0 0.16395451128482819 0.0 0.0 0.1469966471195221 0.0 0.17474240064620972 0.0 0.0 0.0 0.0 0.0 0.0 0.11302074790000916 0.1305159479379654 0.0 0.0 0.0 0.0 0.0 0.0 0.0 0.20902562141418457 0.21571888029575348 0.11822190880775452 0.13944877684116364 0.0 0.0 0.0 0.21034863591194153 0.0 0.0 0.0 0.0 0.0 0.0 0.0 0.0886867493391037 0.0 0.11902271211147308 0.0 0.0 0.0 0.0 0.0 0.0 0.0
1153280 0.0 0.0 0.0 0.0 0.17294976115226746 0.0 0.0 0.14212816953659058 0.0 0.12548694014549255 0.0 0.0 0.0 0.0 0.0 0.0 0.0 0.24475142359733582 0.0 0.23058705031871796 0.0 0.0 0.0 0.1358913630247116 0.0 0.29200485348701477 0.1728103905916214 0.265135794878006 0.38334786891937256 0.0 0.0 0.0 0.10048578679561615 0.0 0.0 0.0 0.0 0.0 0.0 0.0 0.0 0.0 0.13336443901062012 0.0 0.0 0.0 0.0 0.0 0.0 0.0
1153577 0.0703241378068924 0.0 0.0 0.0 0.10717860609292984 0.0 0.0 0.0 0.0 0.31261491775512695 0.0 0.0 0.0 0.0 0.0 0.0 0.0 0.0 0.0 0.11721189320087433 0.0 0.0 0.0 0.0 0.0 0.17524653673171997 0.5082006454467773 0.0 0.19370844960212708 0.0 0.0 0.0 0.08807671070098877 0.0 0.0 0.0 0.0 0.0 0.0 0.0 0.1508265733718872 0.0 0.0 0.0 0.0 0.0 0.0 0.0 0.0 0.0
1153853 0.0 0.0 0.0 0.0 0.12689140439033508 0.0 0.0 0.0 0.0 0.025906860828399658 0.0 0.0 0.0 0.0 0.0 0.21758681535720825 0.19026042520999908 0.18289931118488312 0.0 0.2121812105178833 0.0 0.0 0.1975177675485611 0.08434295654296875 0.0 0.22873453795909882 0.3073233366012573 0.17485588788986206 0.2388959676027298 0.10776078701019287 0.0 0.0 0.23308736085891724 0.0 0.0 0.0 0.0 0.0 0.0 0.0 0.21188569068908691 0.0 0.0 0.0 0.0 0.0 0.0 0.0 0.0 0.0
1153943 0.0 0.0 0.0 0.0 0.03254973888397217 0.0 0.0 0.05898940563201904 0.0 0.12436928600072861 0.0 0.0 0.0 0.0 0.0 0.0 0.18692323565483093 0.17417478561401367 0.0 0.18926481902599335 0.0 0.0 0.0 0.2106560468673706 0.0 0.2391200065612793 0.04769772291183472 0.3318171203136444 0.23368778824806213 0.0 0.0 0.0 0.17827603220939636 0.0 0.0 0.0 0.0 0.0 0.0 0.0 0.009746402502059937 0.0 0.1851351261138916 0.0 0.0 0.0 0.0 0.0 0.0 0.0
1154176 0.008266031742095947 0.0 0.0 0.0 0.06471487879753113 0.0 0.0 0.08144005388021469 0.01298898458480835 0.2667902708053589 0.0 0.0 0.0 0.0 0.0 0.015604227781295776 0.0751342624425888 0.04789242148399353 0.0 0.11277944594621658 0.0 0.0 0.0 0.0 0.0 0.06031997874379158 0.24626001715660095 0.10660083591938019 0.18949049711227417 0.0 0.0 0.0 0.1356746107339859 0.0 0.0 0.0 0.0 0.0 0.0 0.0 0.08038724958896637 0.0 0.18007735908031464 0.0 0.0 0.0 0.0 0.0 0.0 0.0
1154459 0.0 0.0 0.0 0.0 0.17294976115226746 0.0 0.0 0.14212816953659058 0.0 0.12548694014549255 0.0 0.0 0.0 0.0 0.0 0.0 0.0 0.24475142359733582 0.0 0.23058705031871796 0.0 0.0 0.0 0.1358913630247116 0.0 0.29200485348701477 0.1728103905916214 0.265135794878006 0.38334786891937256 0.0 0.0 0.0 0.10048578679561615 0.0 0.0 0.0 0.0 0.0 0.0 0.0 0.0 0.0 0.13336443901062012 0.0 0.0 0.0 0.0 0.0 0.0 0.0
116552 0.04899562895298004 0.0 0.0 0.0 0.0 0.0 0.0 0.0 0.0 0.13051587343215942 0.0 0.0 0.0 0.0 0.0 0.32085102796554565 0.11512170732021332 0.0 0.0 0.18978093564510345 0.0 0.0 0.06896702200174332 0.22965604066848755 0.0 0.0 0.22028043866157532 0.3249719738960266 0.22015538811683655 0.020309284329414368 0.18520015478134155 0.0 0.2617500126361847 0.0 0.0 0.0 0.0 0.0 0.0 0.0 0.0 0.0 0.0 0.0 0.0 0.0 0.0 0.0 0.0 0.0
12576 0.0 0.0 0.0 0.0 0.0 0.0 0.0 0.0 0.0 0.0 0.0 0.0 0.0 0.0 0.0 0.0 0.47558140754699707 0.09791775047779083 0.0 0.23852485418319702 0.0 0.0 0.0 0.3943737745285034 0.0 0.0 0.11516605317592621 0.0 0.14540068805217743 0.0 0.0 0.0 0.032472312450408936 0.0 0.0 0.0 0.15903101861476898 0.0 0.0 0.0 0.09607978165149689 0.0 0.0 0.0 0.0 0.0 0.009987518191337585 0.0 0.0 0.0
128540 0.0 0.0 0.0 0.0 0.42693787813186646 0.0 0.0 0.13940338790416718 0.0203850120306015 0.0 0.0 0.0 0.0 0.0 0.0 0.0 0.42586827278137207 0.20045948028564453 0.0 0.19994616508483887 0.0 0.0 0.09769205003976822 0.012219324707984924 0.0 0.17116869986057281 0.13751892745494843 0.0 0.33524468541145325 0.16049569845199585 0.0 0.0 0.0 0.0 0.0 0.0 0.0 0.0 0.0 0.0 0.0 0.0 0.0 0.0 0.0 0.08599209785461426 0.0 0.0 0.0 0.0
132806 0.0 0.0 0.0 0.0 0.19298768043518066 0.0 0.0 0.2189079225063324 0.14250680804252625 0.0 0.0 0.0 0.0 0.0 0.0 0.0 0.149690642952919 0.0 0.0 0.1980372965335846 0.0 0.0 0.22835318744182587 0.08705829083919525 0.0 0.07770611345767975 0.13568930327892303 0.1469472050666809 0.3346942365169525 0.31112730503082275 0.0 0.0 0.0 0.0 0.0 0.0 0.0 0.0 0.0 0.0 0.03503929078578949 0.0 0.0628548413515091 0.0 0.0 0.0 0.0 0.0 0.0 0.0
135130 0.0 0.0 0.0 0.0 0.04582515358924866 0.0 0.0 0.0 0.0 0.0 0.0 0.0 0.0 0.0 0.0 0.0 0.2996974587440491 0.0 0.0 0.3335149884223938 0.0 0.0 0.0 0.2957542836666107 0.0 0.0 0.2966567277908325 0.0 0.1177871823310852 0.0 0.0 0.0 0.19133557379245758 0.0 0.0 0.0 0.10316536575555801 0.0 0.0 0.0 0.10714251548051834 0.0 0.22226890921592712 0.0 0.0 0.0 0.057247139513492584 0.0 0.0 0.0
141342 0.0 0.0 0.0 0.0 0.2855875790119171 0.0 0.0 0.0 0.0 0.0 0.0 0.0 0.0 0.0 0.0 0.15714938938617706 0.22201424837112427 0.0 0.0 0.0 0.0 0.0 0.0 0.025905221700668335 0.0 0.04636225476861 0.2521136999130249 0.329406201839447 0.3265417814254761 0.0 0.0 0.0 0.0 0.0 0.0 0.0 0.0 0.0 0.0 0.0 0.0 0.0 0.0 0.0 0.0 0.0 0.0 0.0 0.0 0.0
141347 0.0 0.0 0.0 0.0 0.22153358161449432 0.0 0.0 0.16262492537498474 0.004304945468902588 0.133731409907341 0.0 0.0 0.0 0.0 0.0 0.006352081894874573 0.0 0.10288946330547333 0.0 0.08649679273366928 0.0 0.0 0.0 0.0 0.0 0.2641788423061371 0.14475466310977936 0.22540412843227386 0.3248177170753479 0.0 0.0 0.0 0.03842361271381378 0.0 0.0 0.0 0.0 0.0 0.0 0.0 0.0 0.0 0.0 0.0 0.0 0.0 0.0 0.0 0.0 0.0
148170 0.0 0.0 0.0 0.0 0.19287917017936707 0.0 0.0 0.13332724571228027 0.0 0.04022969305515289 0.0 0.0 0.0 0.0 0.0 0.21675755083560944 0.30514609813690186 0.0 0.0 0.10344487428665161 0.0 0.0 0.0 0.009836331009864807 0.0 0.0 0.3614673614501953 0.0 0.2071208953857422 0.0 0.0 0.0 0.0 0.0 0.0 0.0 0.0 0.0 0.0 0.0 0.06246213614940643 0.0 0.021061092615127563 0.0 0.0 0.0 0.0 0.0 0.0 0.0
15670 0.0 0.0 0.0 0.0 0.2180841565132141 0.0 0.0 0.20535823702812195 0.11307868361473083 0.13709376752376556 0.0 0.0 0.0 0.0 0.0 0.13088074326515198 0.1514292061328888 0.08681188523769379 0.0 0.1860620081424713 0.0 0.0 0.006728500127792358 0.049635931849479675 0.0 0.09047560393810272 0.1959128975868225 0.1610361635684967 0.2558498978614807 0.09578052163124084 0.053925253450870514 0.0 0.08075188100337982 0.0 0.0 0.0 0.0 0.0 0.04222799837589264 0.0 0.06684045493602753 0.0 0.16643133759498596 0.0 0.0 0.0 0.0 0.0 0.0 0.0
1688 0.0 0.0 0.0 0.0 0.23709046840667725 0.0 0.0 0.0 0.0 0.22904010117053986 0.0 0.0 0.0 0.0 0.0 0.0 0.0 0.3057370185852051 0.0 0.0 0.0 0.0 0.0 0.0 0.0 0.0 0.0 0.18747125566005707 0.11788944154977798 0.0 0.0 0.0 0.31545573472976685 0.0 0.0 0.0 0.0 0.0 0.0 0.0 0.0 0.0 0.0 0.0 0.0 0.0 0.0 0.0 0.0 0.0
175291 0.0 0.0 0.0 0.0 0.08591125905513763 0.0 0.0 0.1364789456129074 0.1585617959499359 0.0 0.0 0.0 0.0 0.0 0.0 0.0 0.0 0.0 0.0 0.6233830451965332 0.0 0.0 0.04829270392656326 0.09889216721057892 0.0 0.0 0.0 0.15737862884998322 0.23306240141391754 0.0 0.22955253720283508 0.0 0.07973822206258774 0.0 0.0 0.0 0.0 0.0 0.0 0.0 0.0 0.0 0.0 0.0 0.0 0.0 0.0 0.0 0.0 0.0
178727 0.0624038428068161 0.0 0.0 0.0 0.021145716309547424 0.0 0.0 0.10693463683128357 0.12203054875135422 0.3494817614555359 0.0 0.0 0.0 0.0 0.0 0.14557287096977234 0.11248098313808441 0.156463623046875 0.0 0.17235803604125977 0.0 0.0 0.0 0.0 0.0 0.19183960556983948 0.23075056076049805 0.11180663108825684 0.240055650472641 0.0 0.0 0.0 0.16244390606880188 0.0 0.0 0.0 0.0 0.0 0.0 0.0 0.06767110526561737 0.0 0.06184139847755432 0.0 0.0 0.0 0.0 0.0 0.0 0.0
18582 0.0522506982088089 0.0 0.0 0.0 0.0 0.0 0.0 0.0 0.0 0.056605055928230286 0.0 0.0 0.0 0.0 0.0 0.0 0.20468679070472717 0.1486327052116394 0.0 0.2884092330932617 0.0 0.0 0.0 0.0 0.0 0.09272630512714386 0.1690910905599594 0.12342874705791473 0.2370300590991974 0.0 0.0 0.0 0.14220640063285828 0.0 0.0 0.0 0.09255599230527878 0.0 0.010082855820655823 0.0 0.21802717447280884 0.0 0.0 0.0 0.0 0.0 0.0 0.0 0.0 0.0
190697 0.0 0.0 0.0 0.0 0.2929977774620056 0.0 0.0 0.09393297135829926 0.06696541607379913 0.07691825181245804 0.0 0.0 0.0 0.0 0.0 0.15728923678398132 0.12808650732040405 0.17392441630363464 0.0 0.3079914152622223 0.0 0.0 0.0 0.0 0.0 0.0 0.36342862248420715 0.0 0.33505702018737793 0.0918196439743042 0.0 0.0 0.0 0.0 0.0 0.0 0.0 0.0 0.15619295835494995 0.0 0.2586088478565216 0.0 0.0 0.0 0.0 0.0 0.0 0.0 0.0 0.0
190706 0.0 0.0 0.0 0.0 0.37061142921447754 0.0 0.0 0.0826958492398262 0.0009045898914337158 0.0 0.0 0.0 0.0 0.0 0.0 0.0 0.07584626972675323 0.0 0.0 0.0 0.0 0.0 0.0 0.0 0.0 0.1175164133310318 0.18859557807445526 0.0 0.36946606636047363 0.0 0.0 0.0 0.0 0.0 0.0 0.0 0.0 0.0 0.16057460010051727 0.0 0.13040417432785034 0.0 0.1056523323059082 0.0 0.0 0.0 0.0 0.0 0.0 0.0
1956 0.0 0.0 0.0 0.0 0.41053473949432373 0.0 0.0 0.15247109532356262 0.0 0.0 0.0 0.0 0.0 0.0 0.0 0.3707132935523987 0.05746611952781677 0.09707775712013245 0.0 0.0 0.0 0.0 0.0 0.0 0.0 0.2868083715438843 0.0 0.0 0.3026488423347473 0.0 0.2399280071258545 0.0 0.0 0.0 0.0 0.0 0.0 0.0 0.0 0.0 0.0 0.0 0.0 0.0 0.0 0.0 0.0 0.0 0.0 0.0
197054 0.0 0.0 0.0 0.0 0.0 0.0 0.0 0.0 0.2005644589662552 0.0 0.0 0.0 0.0 0.0 0.0 0.0 0.2178155779838562 0.0 0.0 0.2635954022407532 0.0 0.0 0.04945565015077591 0.0 0.0 0.11169459670782089 0.27907606959342957 0.0 0.4950125515460968 0.014004826545715332 0.0 0.0 0.0 0.0 0.0 0.0 0.05600335821509361 0.0 0.0 0.0 0.3925899565219879 0.0 0.05435875058174133 0.0 0.0 0.1226004809141159 0.0 0.0 0.0 0.0
198443 0.07301093637943268 0.0 0.0 0.0 0.21255867183208466 0.0 0.0 0.11659575998783112 0.28674280643463135 0.0 0.0 0.0 0.0 0.0 0.0 0.16927626729011536 0.0 0.26991507411003113 0.0 0.2857467532157898 0.0 0.0 0.0 0.0 0.0 0.0 0.04811885952949524 0.0 0.3976325988769531 0.1338009536266327 0.0 0.0 0.11127960681915283 0.0 0.0 0.0 0.0 0.0 0.0 0.0 0.3016112148761749 0.0 0.0 0.0 0.0 0.0 0.0 0.0 0.0 0.0
198653 0.0 0.0 0.0 0.0 0.20548993349075317 0.0 0.0 0.0 0.0 0.0 0.0 0.0 0.0 0.0 0.0 0.5169245600700378 0.314534455537796 0.2401687204837799 0.0 0.060098886489868164 0.0 0.0 0.0 0.31741344928741455 0.0 0.0 0.246455579996109 0.1356758028268814 0.18122705817222595 0.07353745400905609 0.0 0.0 0.25315240025520325 0.0 0.0 0.0 0.0 0.0 0.0 0.0 0.0 0.0 0.0 0.0 0.0 0.0 0.0 0.0 0.0 0.0
206371 0.15945346653461456 0.0 0.0 0.0 0.0 0.0 0.0 0.0 0.0 0.17850880324840546 0.0 0.0 0.0 0.0 0.0 0.03511381894350052 0.31266048550605774 0.2604463994503021 0.0 0.20142807066440582 0.0 0.0 0.0 0.0 0.0 0.1665940284729004 0.3859656751155853 0.11224551498889923 0.20369842648506165 0.0 0.0 0.0 0.20591187477111816 0.0 0.0 0.0 0.0 0.0 0.0 0.0 0.0 0.0 0.0 0.0 0.0 0.0 0.0 0.0 0.0 0.0
210871 0.0 0.0 0.0 0.0 0.2441340535879135 0.0 0.0 0.0 0.0 0.0 0.0 0.0 0.0 0.0 0.0 0.13909481465816498 0.2187652289867401 0.14494338631629944 0.0 0.16001297533512115 0.0 0.0 0.0 0.29623928666114807 0.0 0.1344677060842514 0.6303726434707642 0.04847131669521332 0.3428361713886261 0.0 0.0 0.0 0.0 0.0 0.0 0.0 0.0 0.0 0.0 0.0 0.0 0.0 0.0 0.0 0.0 0.0 0.0 0.0 0.0 0.0
229635 0.0 0.0 0.0 0.0 0.0 0.0 0.0 0.010435573756694794 0.01626753807067871 0.09643398225307465 0.0 0.0 0.0 0.0 0.0 0.0 0.2707163095474243 0.0 0.0 0.26882055401802063 0.0 0.0 0.0 0.02821822464466095 0.0 0.0 0.2948088049888611 0.0 0.3021364212036133 0.0 0.0 0.0 0.0 0.0 0.0 0.0 0.04423541575670242 0.0 0.0 0.0 0.20122291147708893 0.0 0.21885518729686737 0.0 0.0 0.0 0.0 0.0 0.0 0.0
231249 0.0 0.0 0.0 0.0 0.14395898580551147 0.0 0.0 0.12781482934951782 0.10690737515687943 0.17293459177017212 0.0 0.0 0.0 0.0 0.0 0.10161647945642471 0.11984166502952576 0.1063663512468338 0.0 0.21403288841247559 0.0 0.0 0.12243636697530746 0.14848029613494873 0.0 0.11617366969585419 0.2928025424480438 0.3085628151893616 0.2591041922569275 0.16712850332260132 0.0 0.0 0.17793826758861542 0.0 0.0 0.0 0.05098148062825203 0.0 0.10083235800266266 0.0 0.21453917026519775 0.0 0.04559372365474701 0.0 0.0 0.0 0.0 0.0 0.0 0.0
248425 0.0 0.0 0.0 0.0 0.22054369747638702 0.0 0.0 0.18273574113845825 0.0 0.17432402074337006 0.0 0.0 0.0 0.0 0.0 0.1581970751285553 0.1254655420780182 0.3587666153907776 0.0 0.24083812534809113 0.0 0.0 0.13303078711032867 0.0 0.0 0.04094131290912628 0.32651859521865845 0.0 0.38166797161102295 0.06728190183639526 0.0 0.0 0.0 0.0 0.0 0.0 0.0 0.0 0.0 0.0 0.0 0.0 0.0 0.0 0.0 0.09345372021198273 0.0 0.0 0.0 0.0
249421 0.0 0.0 0.0 0.0 0.0 0.0 0.0 0.3020925521850586 0.35192957520484924 0.0 0.0 0.0 0.0 0.0 0.0 0.0 0.0 0.0 0.0 0.1447782814502716 0.0 0.0 0.0 0.13967235386371613 0.0 0.10778407007455826 0.0 0.0 0.3902176022529602 0.0 0.0 0.0 0.026014044880867004 0.0 0.0 0.0 0.13694468140602112 0.0 0.0 0.0 0.21590523421764374 0.0 0.0 0.0 0.0 0.0 0.0 0.0 0.0 0.0
254923 0.0 0.0 0.0 0.0 0.2295098900794983 0.0 0.0 0.051666975021362305 0.0 0.0 0.0 0.0 0.0 0.0 0.0 0.056715793907642365 0.11686927080154419 0.18272200226783752 0.0 0.02413707971572876 0.0 0.0 0.295906126499176 0.13723872601985931 0.0 0.23068705201148987 0.21707995235919952 0.12873458862304688 0.15317028760910034 0.221848264336586 0.014375381171703339 0.0 0.2670998275279999 0.0 0.0 0.0 0.0 0.0 0.0 0.0 0.0 0.0 0.0 0.0 0.0 0.0 0.0 0.0 0.0 0.0
259701 0.0 0.0 0.0 0.0 0.13959002494812012 0.0 0.0 0.15962237119674683 0.1515938937664032 0.22989898920059204 0.0 0.0 0.0 0.0 0.0 0.1692497283220291 0.09660793840885162 0.02930907905101776 0.0 0.14166322350502014 0.0 0.0 0.0 0.20859602093696594 0.0 0.009455733001232147 0.1851578801870346 0.32920482754707336 0.3131507635116577 0.15467990934848785 0.10338529199361801 0.0 0.11358225345611572 0.0 0.0 0.0 0.0 0.0 0.06599931418895721 0.0 0.08696085959672928 0.0 0.05220538377761841 0.0 0.0 0.0 0.0 0.0 0.0 0.0
259702 0.0 0.0 0.0 0.0 0.1367187201976776 0.0 0.0 0.10884131491184235 0.08906190097332001 0.3415462374687195 0.0 0.0 0.0 0.0 0.0 0.20183035731315613 0.0444464385509491 0.2617320716381073 0.0 0.22991076111793518 0.0 0.0 0.0 0.33814555406570435 0.0 0.04283980280160904 0.18034031987190247 0.3939264416694641 0.26482731103897095 0.0 0.03122585266828537 0.0 0.166187584400177 0.0 0.0 0.0 0.0013893842697143555 0.0 0.0 0.0 0.0 0.0 0.1396043300628662 0.0 0.0 0.0 0.0 0.0 0.0 0.0
263279 0.023538842797279358 0.0 0.0 0.0 0.2780762016773224 0.0 0.0 0.18516385555267334 0.0 0.0 0.0 0.0 0.0 0.0 0.0 0.0 0.0 0.0 0.0 0.2490554004907608 0.0 0.0 0.0 0.0 0.0 0.0 0.0 0.26887059211730957 0.2166413962841034 0.0 0.0 0.0 0.19664615392684937 0.0 0.0 0.0 0.0 0.0 0.0 0.0 0.0 0.0 0.0 0.0 0.0 0.0 0.0 0.0 0.0 0.0
263498 0.0 0.0 0.0 0.0 0.10001774877309799 0.0 0.0 0.07218612730503082 0.0 0.0 0.0 0.0 0.0 0.0 0.0 0.0 0.1941353976726532 0.0 0.0 0.2485668659210205 0.0 0.0 0.08468317985534668 0.04184642434120178 0.0 0.0883563756942749 0.46194279193878174 0.0 0.33125752210617065 0.0 0.0 0.0 0.0 0.0 0.0 0.0 0.036376677453517914 0.0 0.16010476648807526 0.0 0.17062048614025116 0.0 0.04813976585865021 0.0 0.0 0.0 0.0 0.0 0.0 0.0
265203 0.0 0.0 0.0 0.0 0.0 0.0 0.0 0.107045017182827 0.0 0.2162974774837494 0.0 0.0 0.0 0.0 0.0 0.24934113025665283 0.28622227907180786 0.027924999594688416 0.0 0.12757359445095062 0.0 0.0 0.0 0.15982423722743988 0.0 0.0 0.3170117735862732 0.2802426218986511 0.29976245760917664 0.16615116596221924 0.0 0.0 0.0 0.0 0.0 0.0 0.04500505328178406 0.0 0.0 0.0 0.05524428188800812 0.0 0.10378144681453705 0.0 0.0 0.0 0.0 0.0 0.0 0.0
273152 0.0 0.0 0.0 0.0 0.23619487881660461 0.0 0.0 0.0 0.0 0.02183517813682556 0.0 0.0 0.0 0.0 0.0 0.18929749727249146 0.30333536863327026 0.35983431339263916 0.0 0.14181160926818848 0.0 0.0 0.022747166454792023 0.24776697158813477 0.0 0.26887521147727966 0.4031562805175781 0.08692984282970428 0.29163259267807007 0.0 0.0 0.0 0.21008813381195068 0.0 0.0 0.0 0.10977450013160706 0.0 0.0 0.0 0.01572468876838684 0.0 0.0 0.0 0.0 0.0 0.0 0.0 0.0 0.0
27510 0.0 0.0 0.0 0.0 0.1512964367866516 0.0 0.0 0.124741330742836 0.13085207343101501 0.12783992290496826 0.0 0.0 0.0 0.0 0.0 0.0 0.0 0.17524239420890808 0.0 0.04277724027633667 0.0 0.0 0.0969214215874672 0.0 0.0 0.16539698839187622 0.09427720308303833 0.0 0.3663289546966553 0.0 0.0 0.0 0.0 0.0 0.0 0.0 0.0 0.0 0.011697813868522644 0.0 0.0 0.0 0.25094443559646606 0.0 0.0 0.0 0.0 0.0 0.0 0.0
28290 0.15259481966495514 0.0 0.0 0.0 0.0 0.0 0.0 0.17011107504367828 0.0 0.0 0.0 0.0 0.0 0.0 0.0 0.0 0.5541026592254639 0.0 0.0 0.3314931392669678 0.0 0.0 0.0 0.09154440462589264 0.0 0.0 0.0 0.0 0.24240916967391968 0.0 0.0 0.0 0.0 0.0 0.0 0.0 0.0 0.0 0.0 0.0 0.0 0.0 0.0 0.0 0.0 0.0 0.0 0.0 0.0 0.0
286500 0.0 0.0 0.0 0.0 0.19378206133842468 0.0 0.0 0.0 0.05527658760547638 0.0 0.0 0.0 0.0 0.0 0.0 0.051351048052310944 0.0 0.0 0.0 0.09607075899839401 0.0 0.0 0.018431365489959717 0.07479778677225113 0.0 0.14000295102596283 0.2412242740392685 0.0 0.28969860076904297 0.0 0.24661892652511597 0.0 0.07163269817829132 0.0 0.0 0.0 0.04104211926460266 0.0 0.06276248395442963 0.0 0.15021967887878418 0.0 0.03890982270240784 0.0 0.0 0.0 0.0 0.0 0.0 0.0
287787 0.0 0.0 0.0 0.0 0.20265722274780273 0.0 0.0 0.0 0.0 0.1116390973329544 0.0 0.0 0.0 0.0 0.0 0.0 0.0 0.365073561668396 0.0 0.0 0.0 0.0 0.21085524559020996 0.0 0.0 0.37705957889556885 0.2398373782634735 0.07349549233913422 0.2745571732521057 0.0 0.0 0.0 0.0 0.0 0.0 0.0 0.0 0.0 0.0 0.0 0.0 0.0 0.0 0.0 0.0 0.0 0.0 0.0 0.0 0.0
28851 0.0 0.0 0.0 0.0 0.14071249961853027 0.0 0.0 0.0 0.0 0.0 0.0 0.0 0.0 0.0 0.0 0.19820553064346313 0.2046320140361786 0.0 0.0 0.48007988929748535 0.0 0.0 0.0 0.21339282393455505 0.0 0.0 0.34186702966690063 0.10488466918468475 0.251399427652359 0.011495769023895264 0.0 0.0 0.03802652657032013 0.0 0.0 0.0 0.0 0.0 0.1174921840429306 0.0 0.08085563778877258 0.0 0.0 0.0 0.0 0.0 0.0008882582187652588 0.0 0.0 0.0
289779 0.0 0.0 0.0 0.0 0.2724210321903229 0.0 0.0 0.12445192039012909 0.0 0.031055033206939697 0.0 0.0 0.0 0.0 0.0 0.12393227219581604 0.004293963313102722 0.290520042181015 0.0 0.16508546471595764 0.0 0.0 0.0 0.005793675780296326 0.0 0.0 0.16116483509540558 0.0 0.3189275860786438 0.010328486561775208 0.0 0.0 0.0 0.0 0.0 0.0 0.0 0.0 0.0 0.0 0.10100990533828735 0.0 0.2414342761039734 0.0 0.0 0.0 0.0 0.0 0.0 0.0
289780 0.0 0.0 0.0 0.0 0.3226849138736725 0.0 0.0 0.10175053775310516 0.0 0.0 0.0 0.0 0.0 0.0 0.0 0.08951875567436218 0.0 0.3115098476409912 0.0 0.1418740153312683 0.0 0.0 0.0 0.0 0.0 0.0 0.14639638364315033 0.0 0.3248611092567444 0.013243556022644043 0.0 0.0 0.0 0.0 0.0 0.0 0.0 0.0 0.0 0.0 0.09149757027626038 0.0 0.2450593113899231 0.0 0.0 0.0 0.0 0.0 0.0 0.0
289781 0.0 0.0 0.0 0.0 0.33663830161094666 0.0 0.0 0.09784243255853653 0.0 0.0066094547510147095 0.0 0.0 0.0 0.0 0.0 0.1037837564945221 0.0 0.3002663254737854 0.0 0.125986248254776 0.0 0.0 0.0 0.0 0.0 0.0 0.1512424647808075 0.0 0.32132089138031006 0.001944810152053833 0.0 0.0 0.0 0.0 0.0 0.0 0.0 0.0 0.0 0.0 0.09974358230829239 0.0 0.26694539189338684 0.0 0.0 0.0 0.0 0.0 0.0 0.0
307015 0.0 0.0 0.0 0.0 0.0 0.0 0.0 0.0 0.0 0.24541069567203522 0.0 0.0 0.0 0.0 0.0 0.0 0.0 0.3197665810585022 0.0 0.20218133926391602 0.0 0.0 0.23910731077194214 0.1497475653886795 0.0 0.29799607396125793 0.2653307318687439 0.2744210958480835 0.28430595993995667 0.0 0.0 0.0 0.33943265676498413 0.0 0.0 0.0 0.0 0.0 0.0 0.0 0.0 0.0 0.0 0.0 0.0 0.0 0.0 0.0 0.0 0.0
335733 0.07871730625629425 0.0 0.0 0.0 0.04194420576095581 0.0 0.0 0.17578887939453125 0.0 0.1584947407245636 0.0 0.0 0.0 0.0 0.0 0.0 0.0 0.07838461548089981 0.0 0.22851577401161194 0.0 0.0 0.18505044281482697 0.09462892264127731 0.0 0.2613460123538971 0.25425755977630615 0.3495701253414154 0.2194845974445343 0.0 0.0 0.0 0.2452205866575241 0.0 0.0 0.0 0.0 0.0 0.0 0.0 0.004082575440406799 0.0 0.02068507671356201 0.0 0.0 0.0 0.0 0.0 0.0 0.0
33904 0.0 0.0 0.0 0.0 0.0 0.0 0.0 0.0 0.05295756459236145 0.5256203413009644 0.0 0.0 0.0 0.0 0.0 0.0 0.0501280277967453 0.10926909744739532 0.0 0.20095527172088623 0.0 0.0 0.0 0.0 0.0 0.06882894784212112 0.2899429500102997 0.0290859192609787 0.2301197648048401 0.0 0.0 0.0 0.1064598560333252 0.0 0.0 0.0 0.0 0.0 0.0 0.0 0.0 0.0 0.03953152894973755 0.0 0.0 0.0 0.0 0.0 0.0 0.0
33907 0.0 0.0 0.0 0.0 0.015342921018600464 0.0 0.0 0.0 0.08533172309398651 0.333740770816803 0.0 0.0 0.0 0.0 0.0 0.0 0.0 0.10775752365589142 0.0 0.026689544320106506 0.0 0.0 0.0 0.13751628994941711 0.0 0.061996813863515854 0.0 0.17404909431934357 0.28617170453071594 0.0 0.0 0.0 0.1358286589384079 0.0 0.0 0.0 0.0 0.0 0.0 0.0 0.018122658133506775 0.0 0.12362264096736908 0.0 0.0 0.0 0.0 0.0 0.0 0.0
35061 0.0 0.0 0.0 0.0 0.11798212677240372 0.0 0.0 0.057877350598573685 0.0 0.0 0.0 0.0 0.0 0.0 0.0 0.0 0.10431939363479614 0.0 0.0 0.1720726490020752 0.0 0.0 0.022123724222183228 0.18147757649421692 0.0 0.0 0.4848480224609375 0.0 0.3323136270046234 0.10579708218574524 0.0 0.0 0.0 0.0 0.0 0.0 0.0 0.0 0.3580109477043152 0.0 0.07446072995662689 0.0 0.0 0.0 0.0 0.0 0.011382624506950378 0.0 0.0 0.0
38205 0.0 0.0 0.0 0.0 0.0 0.0 0.0 0.0 0.0 0.0 0.0 0.0 0.0 0.0 0.0 0.26822081208229065 0.33092057704925537 0.2759097218513489 0.0 0.0 0.0 0.0 0.0 0.0 0.0 0.0 0.5232916474342346 0.0 0.2666912078857422 0.0 0.0 0.0 0.0 0.0 0.0 0.0 0.0 0.0 0.0 0.0 0.0 0.0 0.0 0.0 0.0 0.0 0.0 0.0 0.0 0.0
387795 0.0 0.0 0.0 0.0 0.4208800792694092 0.0 0.0 0.12431531399488449 0.016144126653671265 0.0 0.0 0.0 0.0 0.0 0.0 0.0 0.42501121759414673 0.20282964408397675 0.0 0.20794019103050232 0.0 0.0 0.10330147296190262 0.0022961795330047607 0.0 0.17843590676784515 0.13277719914913177 0.0 0.3375530540943146 0.15251564979553223 0.0 0.0 0.0 0.0 0.0 0.0 0.0 0.0 0.0 0.0 0.0 0.0 0.0 0.0 0.0 0.09747913479804993 0.0 0.0 0.0 0.0
415693 0.0 0.0 0.0 0.0 0.09395594149827957 0.0 0.0 0.12042756378650665 0.0 0.013537570834159851 0.0 0.0 0.0 0.0 0.0 0.0 0.0005497187376022339 0.09691769629716873 0.0 0.22776061296463013 0.0 0.0 0.0 0.0 0.0 0.14020943641662598 0.29592442512512207 0.2248196303844452 0.2894223928451538 0.0 0.0 0.0 0.18655438721179962 0.0 0.0 0.0 0.0 0.0 0.0 0.0 0.13215471804141998 0.0 0.0 0.0 0.0 0.0 0.0 0.0 0.0 0.0
41714 0.0 0.0 0.0 0.0 0.4430798292160034 0.0 0.0 0.0061613693833351135 0.0 0.0 0.0 0.0 0.0 0.0 0.0 0.0 0.29160216450691223 0.12134844809770584 0.0 0.0 0.0 0.0 0.0 0.0 0.0 0.09322284162044525 0.2686394155025482 0.0 0.3113590180873871 0.0 0.0 0.0 0.0 0.0 0.0 0.0 0.0 0.0 0.0 0.0 0.21145077049732208 0.0 0.0 0.0 0.0 0.0 0.0 0.0 0.0 0.0
427606 0.0 0.0 0.0 0.0 0.3659909963607788 0.0 0.0 0.12246137112379074 0.21285772323608398 0.09960567206144333 0.0 0.0 0.0 0.0 0.0 0.0 0.0 0.0 0.0 0.2644127607345581 0.0 0.0 0.20878541469573975 0.04213814437389374 0.0 0.0 0.3437340259552002 0.1641802340745926 0.38099437952041626 0.08158622682094574 0.0 0.0 0.0 0.0 0.0 0.0 0.0 0.0 0.21652692556381226 0.0 0.11009351164102554 0.0 0.10308600962162018 0.0 0.0 0.0 0.0 0.0 0.0 0.0
44368 0.0 0.0 0.0 0.0 0.1650300920009613 0.0 0.0 0.017250053584575653 0.0 0.3474755883216858 0.0 0.0 0.0 0.0 0.0 0.0 0.0 0.1493818163871765 0.0 0.0 0.0 0.0 0.0 0.0 0.0 0.3409867584705353 0.2702373266220093 0.06778877973556519 0.1663123220205307 0.0 0.0 0.0 0.15136419236660004 0.0 0.0 0.0 0.0 0.0 0.0 0.0 0.0 0.0 0.0 0.0 0.0 0.0 0.0 0.0 0.0 0.0
45599 0.0 0.0 0.0 0.0 0.18195295333862305 0.0 0.0 0.19521012902259827 0.0 0.09906591475009918 0.0 0.0 0.0 0.0 0.0 0.0439816415309906 0.16325341165065765 0.05147719383239746 0.0 0.008956506848335266 0.0 0.0 0.0 0.0 0.0 0.19235724210739136 0.2249196171760559 0.01764167845249176 0.2610989212989807 0.0 0.0 0.0 0.0 0.0 0.0 0.0 0.0 0.0 0.0 0.0 0.0 0.0 0.11421367526054382 0.0 0.0 0.0 0.0 0.0 0.0 0.0
46079 0.11600972712039948 0.0 0.0 0.0 0.051112785935401917 0.0 0.0 0.0 0.0 0.20201751589775085 0.0 0.0 0.0 0.0 0.0 0.0 0.3555625081062317 0.15531820058822632 0.0 0.3134685456752777 0.0 0.0 0.03185195475816727 0.11688438802957535 0.0 0.17193877696990967 0.33629482984542847 0.17398668825626373 0.11552656441926956 0.0 0.10847367346286774 0.0 0.2924206852912903 0.0 0.0 0.0 0.0 0.0 0.0 0.0 0.0 0.0 0.0 0.0 0.0 0.0 0.0 0.0 0.0 0.0
46431 0.22806011140346527 0.0 0.0 0.0 0.0834956020116806 0.0 0.0 0.0 0.0 0.0 0.0 0.0 0.0 0.0 0.0 0.0 0.0 0.0 0.0 0.22614052891731262 0.0 0.0 0.0 0.07979124784469604 0.0 0.05877646058797836 0.0 0.030294179916381836 0.13131976127624512 0.0 0.0 0.0 0.23788179457187653 0.0 0.0 0.0 0.0 0.0 0.0 0.0 0.14394566416740417 0.0 0.1366652399301529 0.0 0.0 0.0 0.0 0.0 0.0 0.0
486840 0.16739840805530548 0.0 0.0 0.0 0.20737431943416595 0.0 0.0 0.08050914108753204 0.0 0.0 0.0 0.0 0.0 0.0 0.0 0.0 0.2736029624938965 0.0 0.0 0.1664605587720871 0.0 0.0 0.0 0.0 0.0 0.0 0.33938342332839966 0.0 0.03109295666217804 0.019676387310028076 0.0 0.0 0.11718787997961044 0.0 0.0 0.0 0.0 0.0 0.058289751410484314 0.0 0.11608917266130447 0.0 0.07750844955444336 0.0 0.0 0.0 0.0 0.0 0.0 0.0
48766 0.0 0.0 0.0 0.0 0.0464344322681427 0.0 0.0 0.038645774126052856 0.0 0.0 0.0 0.0 0.0 0.0 0.0 0.0 0.30594998598098755 0.0 0.0 0.0 0.0 0.0 0.0 0.0 0.0 0.1603783667087555 0.34464532136917114 0.0 0.3845164477825165 0.12922334671020508 0.0 0.0 0.0 0.0 0.0 0.0 0.11099252849817276 0.0 0.0 0.0 0.007933646440505981 0.0 0.12311318516731262 0.0 0.0 0.0 0.0 0.0 0.0 0.0
503883 0.12204794585704803 0.0 0.0 0.0 0.1639503836631775 0.0 0.0 0.0 0.1423387974500656 0.0 0.0 0.0 0.0 0.0 0.0 0.0 0.0 0.20654310286045074 0.0 0.059825293719768524 0.0 0.0 0.0 0.0 0.0 0.1466173380613327 0.2479899525642395 0.0 0.2592903971672058 0.0 0.0 0.0 0.15282663702964783 0.0 0.0 0.0 0.0 0.0 0.0 0.0 0.4679185748100281 0.0 0.0 0.0 0.0 0.0 0.0 0.0 0.0 0.0
503893 0.0 0.0 0.0 0.0 0.15516452491283417 0.0 0.0 0.0 0.27642542123794556 0.4172961115837097 0.0 0.0 0.0 0.0 0.0 0.14694303274154663 0.0506158322095871 0.22000843286514282 0.0 0.09959346055984497 0.0 0.0 0.0 0.0 0.0 0.12768903374671936 0.25115540623664856 0.0 0.21914035081863403 0.015744566917419434 0.0 0.0 0.18259337544441223 0.0 0.0 0.0 0.0 0.0 0.005886107683181763 0.0 0.16648858785629272 0.0 0.0 0.0 0.0 0.02051842212677002 0.0 0.0 0.0 0.0
513189 0.0 0.0 0.0 0.0 0.25965532660484314 0.0 0.0 0.10300537198781967 0.0 0.0 0.0 0.0 0.0 0.0 0.0 0.0 0.286247581243515 0.23024703562259674 0.0 0.2512173056602478 0.0 0.0 0.0 0.35352855920791626 0.0 0.06717976927757263 0.19863952696323395 0.21680325269699097 0.274823397397995 0.0 0.0 0.0 0.18313218653202057 0.0 0.0 0.0 0.0 0.0 0.0 0.0 0.10739172995090485 0.0 0.0 0.0 0.0 0.0 0.00457058846950531 0.0 0.0 0.0
54129 0.0 0.0 0.0 0.0 0.06227947771549225 0.0 0.0 0.0 0.0 0.0 0.0 0.0 0.0 0.0 0.0 0.17244330048561096 0.25675511360168457 0.5293596982955933 0.0 0.4137418866157532 0.0 0.0 0.0 0.0 0.0 0.0 0.2555828392505646 0.0 0.1696290373802185 0.08560045063495636 0.0 0.0 0.0 0.0 0.0 0.0 0.0 0.0 0.0 0.0 0.12258274108171463 0.0 0.0 0.0 0.0 0.0 0.0 0.0 0.0 0.0
54131 0.0 0.0 0.0 0.0 0.22308342158794403 0.0 0.0 0.0 0.0 0.0 0.0 0.0 0.0 0.0 0.0 0.11140604317188263 0.0 0.06833260506391525 0.0 0.2679429054260254 0.0 0.0 0.2347409725189209 0.12374106049537659 0.0 0.0 0.23898133635520935 0.0 0.1734212189912796 0.27097731828689575 0.0 0.0 0.12334088236093521 0.0 0.0 0.0 0.0 0.0 0.0 0.0 0.27732694149017334 0.0 0.0 0.0 0.0 0.0 0.0 0.0 0.0 0.0
56119 0.0 0.0 0.0 0.0 0.0 0.0 0.0 0.0 0.0 0.0 0.0 0.0 0.0 0.0 0.0 0.0 0.42594200372695923 0.08328408002853394 0.0 0.3963107466697693 0.0 0.0 0.0 0.23405614495277405 0.0 0.0 0.10250599682331085 0.0 0.10354331135749817 0.0 0.0 0.0 0.21327051520347595 0.0 0.0 0.0 0.0 0.0 0.0 0.0 0.0502011775970459 0.0 0.11197397112846375 0.0 0.0 0.0 0.0 0.0 0.0 0.0
561238 0.0 0.0 0.0 0.0 0.18899552524089813 0.0 0.0 0.17385683953762054 0.08638899028301239 0.0810731053352356 0.0 0.0 0.0 0.0 0.0 0.0 0.10197329521179199 0.12493335455656052 0.0 0.1874239146709442 0.0 0.0 0.0 0.08494094759225845 0.0 0.12853097915649414 0.15995819866657257 0.2216203510761261 0.28202497959136963 0.0 0.0 0.0 0.08817090839147568 0.0 0.0 0.0 0.0 0.0 0.0 0.0 0.06381136178970337 0.0 0.250863641500473 0.0 0.0 0.0 0.0 0.0 0.0 0.0
568857 0.0 0.0 0.0 0.0 0.4390377998352051 0.0 0.0 0.0 0.0 0.0 0.0 0.0 0.0 0.0 0.0 0.2486439198255539 0.0 0.11094626039266586 0.0 0.11695002019405365 0.0 0.0 0.0 0.0 0.0 0.13051104545593262 0.45851218700408936 0.0 0.3646657466888428 0.0 0.0 0.0 0.0 0.0 0.0 0.0 0.0 0.0 0.04478412866592407 0.0 0.0935804471373558 0.0 0.0 0.0 0.0 0.0 0.0 0.0 0.0 0.0
573964 0.0 0.0 0.0 0.0 0.3316923975944519 0.0 0.0 0.20780375599861145 0.0 0.0 0.0 0.0 0.0 0.0 0.0 0.0 0.21225443482398987 0.1776193380355835 0.0 0.31903403997421265 0.0 0.0 0.0 0.3414890766143799 0.0 0.012072727084159851 0.1927119940519333 0.08610887825489044 0.3465859293937683 0.0 0.0 0.0 0.13764970004558563 0.0 0.0 0.0 0.0 0.0 0.028551533818244934 0.0 0.08691119402647018 0.0 0.0 0.0 0.0 0.0 0.0 0.0 0.0 0.0
573978 0.0 0.0 0.0 0.0 0.23269660770893097 0.0 0.0 0.09283994138240814 0.0 0.07097209244966507 0.0 0.0 0.0 0.0 0.0 0.06838391721248627 0.2810307741165161 0.27688321471214294 0.0 0.24433743953704834 0.0 0.0 0.0 0.24714550375938416 0.0 0.07710130512714386 0.23274177312850952 0.1798470914363861 0.2700745761394501 0.0 0.0 0.0 0.16421620547771454 0.0 0.0 0.0 0.03187379613518715 0.0 0.0 0.0 0.15652963519096375 0.0 0.0 0.0 0.0 0.0 0.05147140473127365 0.0 0.0 0.0
574009 0.0 0.0 0.0 0.0 0.16225241124629974 0.0 0.0 0.1605120450258255 0.09534084051847458 0.12089407444000244 0.0 0.0 0.0 0.0 0.0 0.0855666920542717 0.17750295996665955 0.09374602884054184 0.0 0.17321591079235077 0.0 0.0 0.05149703472852707 0.03630022704601288 0.0 0.12722346186637878 0.18642626702785492 0.18642985820770264 0.23937487602233887 0.10725703835487366 0.06432487815618515 0.0 0.08998145908117294 0.0 0.0 0.0 0.0 0.0 0.0960564911365509 0.0 0.10332901030778885 0.0 0.14528106153011322 0.0 0.0 0.0 0.0 0.0 0.0 0.0
574264 0.0 0.0 0.0 0.0 0.285810649394989 0.0 0.0 0.1273651123046875 0.0 0.11418984830379486 0.0 0.0 0.0 0.0 0.0 0.02798037976026535 0.14023752510547638 0.20830774307250977 0.0 0.03260819613933563 0.0 0.0 0.0 0.0 0.0 0.18225011229515076 0.2788107395172119 0.20663386583328247 0.2765345275402069 0.0 0.0 0.0 0.0 0.0 0.0 0.0 0.0 0.0 0.07256923615932465 0.0 0.0383230596780777 0.0 0.12380287051200867 0.0 0.0 0.0 0.0 0.0 0.0 0.0
574462 0.0 0.0 0.0 0.0 0.18899552524089813 0.0 0.0 0.17385683953762054 0.08638899028301239 0.0810731053352356 0.0 0.0 0.0 0.0 0.0 0.0 0.10197329521179199 0.12493335455656052 0.0 0.1874239146709442 0.0 0.0 0.0 0.08494094759225845 0.0 0.12853097915649414 0.15995819866657257 0.2216203510761261 0.28202497959136963 0.0 0.0 0.0 0.08817090839147568 0.0 0.0 0.0 0.0 0.0 0.0 0.0 0.06381136178970337 0.0 0.250863641500473 0.0 0.0 0.0 0.0 0.0 0.0 0.0
575077 0.0 0.0 0.0 0.0 0.2790527045726776 0.0 0.0 0.0 0.0 0.0 0.0 0.0 0.0 0.0 0.0 0.33010825514793396 0.0 0.29704374074935913 0.0 0.23750515282154083 0.0 0.0 0.0 0.2837005853652954 0.0 0.0 0.15724602341651917 0.0 0.36030733585357666 0.0 0.0 0.0 0.04727676510810852 0.0 0.0 0.0 0.0 0.0 0.0 0.0 0.0 0.0 0.0 0.0 0.0 0.0 0.0 0.0 0.0 0.0
575292 0.0 0.0 0.0 0.0 0.2016056627035141 0.0 0.0 0.025154374539852142 0.020610108971595764 0.040497586131095886 0.0 0.0 0.0 0.0 0.0 0.06278268247842789 0.0 0.0 0.0 0.14477577805519104 0.0 0.0 0.07426287978887558 0.02365279197692871 0.0 0.17184123396873474 0.371123343706131 0.17811211943626404 0.36182600259780884 0.0 0.0 0.0 0.0 0.0 0.0 0.0 0.0 0.0 0.19397981464862823 0.0 0.0 0.0 0.0 0.0 0.0 0.0 0.0 0.0 0.0 0.0
575331 0.0 0.0 0.0 0.0 0.12213850766420364 0.0 0.0 0.1255614161491394 0.250544011592865 0.16335302591323853 0.0 0.0 0.0 0.0 0.0 0.0 0.07217614352703094 0.22208324074745178 0.0 0.10965600609779358 0.0 0.0 0.0 0.007467910647392273 0.0 0.22914715111255646 0.0 0.03262189030647278 0.31236597895622253 0.0 0.0 0.0 0.054653599858284 0.0 0.0 0.0 0.0 0.0 0.0 0.0 0.041504740715026855 0.0 0.13259194791316986 0.0 0.0 0.0 0.0 0.0 0.0 0.0
576725 0.0 0.0 0.0 0.0 0.24821221828460693 0.0 0.0 0.16186077892780304 0.0 0.11798190325498581 0.0 0.0 0.0 0.0 0.0 0.0 0.10852833092212677 0.18042172491550446 0.0 0.0 0.0 0.0 0.0 0.0 0.0 0.21210089325904846 0.3037033975124359 0.1717967689037323 0.19543306529521942 0.0 0.0 0.0 0.028772979974746704 0.0 0.0 0.0 0.0 0.0 0.004320427775382996 0.0 0.11537937819957733 0.0 0.12882953882217407 0.0 0.0 0.0 0.0 0.0 0.0 0.0
576795 0.0 0.0 0.0 0.0 0.15142934024333954 0.0 0.0 0.17432206869125366 0.02614051103591919 0.13628065586090088 0.0 0.0 0.0 0.0 0.0 0.07717795670032501 0.14828473329544067 0.1206115111708641 0.0 0.10323207080364227 0.0 0.0 0.0 0.03168846666812897 0.0 0.11977720260620117 0.21200399100780487 0.19077372550964355 0.23754137754440308 0.04215475916862488 0.028870485723018646 0.0 0.10102260112762451 0.0 0.0 0.0 0.0 0.0 0.09439238905906677 0.0 0.059500083327293396 0.0 0.13863393664360046 0.0 0.0 0.0 0.0 0.0 0.0 0.0
577227 0.0 0.0 0.0 0.0 0.18433621525764465 0.0 0.0 0.13152213394641876 0.09263472259044647 0.13767418265342712 0.0 0.0 0.0 0.0 0.0 0.10516209155321121 0.10663995146751404 0.07913648337125778 0.0 0.11704389750957489 0.0 0.0 0.09653308242559433 0.0015608668327331543 0.0 0.1283053457736969 0.22003762423992157 0.16316719353199005 0.24268126487731934 0.08001402020454407 0.03536488860845566 0.0 0.08729574084281921 0.0 0.0 0.0 0.0 0.0 0.11159741133451462 0.0 0.10966085642576218 0.0 0.12712439894676208 0.0 0.0 0.0 0.0 0.0 0.0 0.0
578780 0.08540596067905426 0.0 0.0 0.0 0.10076433420181274 0.0 0.0 0.0 0.0 6.595253944396973e-05 0.0 0.0 0.0 0.0 0.0 0.3886910676956177 0.11854538321495056 0.1912747174501419 0.0 0.28062325716018677 0.0 0.0 0.0 0.0 0.0 0.0 0.2987517714500427 0.15307340025901794 0.24591784179210663 0.0 0.0 0.0 0.07386519014835358 0.0 0.0 0.0 0.0 0.0 0.0 0.0 0.0 0.0 0.07080665230751038 0.0 0.0 0.0 0.01608636975288391 0.0 0.0 0.0
579008 0.0 0.0 0.0 0.0 0.132644385099411 0.0 0.0 0.0689101293683052 0.0 0.0 0.0 0.0 0.0 0.0 0.0 0.25332391262054443 0.0 0.223021000623703 0.0 0.44101500511169434 0.0 0.0 0.25380057096481323 0.0 0.0 0.0 0.312600314617157 0.0 0.43937915563583374 0.0 0.0 0.0 0.0 0.0 0.0 0.0 0.0 0.0 0.0 0.0 0.0 0.0 0.0 0.0 0.0 0.0893293172121048 0.0 0.0 0.0 0.0
592973 0.0 0.0 0.0 0.0 0.12335731089115143 0.0 0.0 0.2199878990650177 0.0 0.3145054578781128 0.0 0.0 0.0 0.0 0.0 0.15859423577785492 0.197600856423378 0.2058044970035553 0.0 0.12288918346166611 0.0 0.0 0.0 0.0 0.0 0.08993201702833176 0.2900034487247467 0.0 0.25318431854248047 0.018496349453926086 0.0 0.0 0.05173675715923309 0.0 0.0 0.0 0.02107202261686325 0.0 0.0 0.0 0.0 0.0 0.0 0.0 0.0 0.0 0.0 0.0 0.0 0.0
593091 0.0 0.0 0.0 0.0 0.1919555962085724 0.0 0.0 0.0 0.0 0.0 0.0 0.0 0.0 0.0 0.0 0.0 0.11794421076774597 0.15770551562309265 0.0 0.0 0.0 0.0 0.0 0.033200204372406006 0.0 0.06588238477706909 0.03720898926258087 0.28946515917778015 0.3097217381000519 0.0 0.0 0.0 0.0 0.0 0.0 0.0 0.0 0.0 0.0 0.0 0.0 0.0 0.21499449014663696 0.0 0.0 0.0 0.0 0.0 0.0 0.0
593105 0.0 0.0 0.0 0.0 0.14727836847305298 0.0 0.0 0.1147598847746849 0.07259944826364517 0.20597875118255615 0.0 0.0 0.0 0.0 0.0 0.11909240484237671 0.028121203184127808 0.0 0.0 0.4206989109516144 0.0 0.0 0.019580841064453125 0.0 0.0 0.0 0.4216097295284271 0.00818362832069397 0.2255602478981018 0.23457850515842438 0.0 0.0 0.03499823808670044 0.0 0.0 0.0 0.0 0.0 0.07532458007335663 0.0 0.1740426868200302 0.0 0.018869131803512573 0.0 0.0 0.0 0.0 0.0 0.0 0.0
593240 0.0 0.0 0.0 0.0 0.28808170557022095 0.0 0.0 0.0 0.0 0.0 0.0 0.0 0.0 0.0 0.0 0.53370201587677 0.270074725151062 0.28063929080963135 0.0 0.1742568165063858 0.0 0.0 0.0 0.0 0.0 0.0 0.23748023808002472 0.0 0.20686215162277222 0.0 0.0 0.0 0.06591884791851044 0.0 0.0 0.0 0.0 0.0 0.0 0.0 0.22824129462242126 0.0 0.0 0.0 0.0 0.0 0.0 0.0 0.0 0.0
593260 0.0 0.0 0.0 0.0 0.18065442144870758 0.0 0.0 0.184043288230896 0.0 0.07464995235204697 0.0 0.0 0.0 0.0 0.0 0.0018307119607925415 0.3058292865753174 0.1827329695224762 0.0 0.046187832951545715 0.0 0.0 0.016199752688407898 0.0 0.0 0.3080672025680542 0.25337302684783936 0.0 0.3330804407596588 0.0 0.0 0.0 0.0 0.0 0.0 0.0 0.07934580743312836 0.0 0.0 0.0 0.0 0.0 0.0 0.0 0.0 0.0 0.0 0.0 0.0 0.0
593813 0.10828940570354462 0.0 0.0 0.0 0.18092675507068634 0.0 0.0 0.0 0.0 0.29387831687927246 0.0 0.0 0.0 0.0 0.0 0.0 0.0 0.0 0.0 0.11768286675214767 0.0 0.0 0.0 0.0 0.0 0.0 0.258989155292511 0.1959179937839508 0.09876209497451782 0.0 0.0 0.0 0.09390375018119812 0.0 0.0 0.0 0.0 0.0 0.0 0.0 0.0 0.0 0.16747182607650757 0.0 0.0 0.0 0.0 0.0 0.0 0.0
594047 0.0 0.0 0.0 0.0 0.4186866283416748 0.0 0.0 0.0 0.0 0.0 0.0 0.0 0.0 0.0 0.0 0.05327752232551575 0.0 0.037972480058670044 0.0 0.1845548003911972 0.0 0.0 0.20277652144432068 0.0 0.0 0.22590097784996033 0.4268328547477722 0.0 0.35747748613357544 0.06477001309394836 0.0 0.0 0.0 0.0 0.0 0.0 0.0 0.0 0.195836141705513 0.0 0.2153531014919281 0.0 0.0 0.0 0.0 0.0 0.0 0.0 0.0 0.0
594543 0.03356444835662842 0.0 0.0 0.0 0.10933628678321838 0.0 0.0 0.007423728704452515 0.0 0.08752967417240143 0.0 0.0 0.0 0.0 0.0 0.27978432178497314 0.14035564661026 0.26139289140701294 0.0 0.11718139052391052 0.0 0.0 0.0 0.0 0.0 0.14967261254787445 0.22785522043704987 0.08481235802173615 0.23184898495674133 0.0 0.0 0.0 0.0712306946516037 0.0 0.0 0.0 0.025627300143241882 0.0 0.0 0.0 0.08162796497344971 0.0 0.12390907108783722 0.0 0.0 0.0 0.0 0.0 0.0 0.0
594649 0.0 0.0 0.0 0.0 0.13240937888622284 0.0 0.0 0.0 0.0 0.0 0.0 0.0 0.0 0.0 0.0 0.023646563291549683 0.20415309071540833 0.27255117893218994 0.0 0.2514297664165497 0.0 0.0 0.19286024570465088 0.08191099017858505 0.0 0.15957731008529663 0.18069976568222046 0.0 0.3158619701862335 0.0 0.007063239812850952 0.0 0.0 0.0 0.0 0.0 0.0 0.0 0.0 0.0 0.0828966349363327 0.0 0.10370467603206635 0.0 0.0 0.0033253878355026245 0.06049644947052002 0.0 0.0 0.0
594900 0.0 0.0 0.0 0.0 0.13613037765026093 0.0 0.0 0.1499072015285492 0.08805577456951141 0.12457437813282013 0.0 0.0 0.0 0.0 0.0 0.10729093849658966 0.12602844834327698 0.07175145298242569 0.0 0.1356389820575714 0.0 0.0 0.019803747534751892 0.02418513596057892 0.0 0.12737923860549927 0.21152453124523163 0.17315217852592468 0.24451139569282532 0.09863901138305664 0.061994925141334534 0.0 0.11405250430107117 0.0 0.0 0.0 0.0 0.0 0.09083038568496704 0.0 0.10298335552215576 0.0 0.1170787513256073 0.0 0.0 0.0 0.0 0.0 0.0 0.0
608326 0.0 0.0 0.0 0.0 0.22197414934635162 0.0 0.0 0.14068229496479034 0.06360580772161484 0.05655546486377716 0.0 0.0 0.0 0.0 0.0 0.15322227776050568 0.07344561815261841 0.2463470846414566 0.0 0.09485500305891037 0.0 0.0 0.0 0.27969542145729065 0.0 0.18926015496253967 0.185015469789505 0.31867682933807373 0.39294716715812683 0.0 0.11268804222345352 0.0 0.10449235141277313 0.0 0.0 0.0 0.05960526317358017 0.0 0.04602430760860443 0.0 0.008632823824882507 0.0 0.06220369040966034 0.0 0.0 0.0 0.0 0.0 0.0 0.0
634902 0.0 0.0 0.0 0.0 0.22502630949020386 0.0 0.0 0.22918981313705444 0.0424007922410965 0.0 0.0 0.0 0.0 0.0 0.0 0.0 0.0 0.264819860458374 0.0 0.27228423953056335 0.0 0.0 0.06968864798545837 0.0 0.0 0.2239723652601242 0.2628694176673889 0.0 0.34495699405670166 0.0 0.0 0.0 0.08633950352668762 0.0 0.0 0.0 0.0 0.0 0.0032282769680023193 0.0 0.085918128490448 0.0 0.0 0.0 0.0 0.0 0.0 0.0 0.0 0.0
634904 0.0 0.0 0.0 0.0 0.22502630949020386 0.0 0.0 0.22918981313705444 0.0424007922410965 0.0 0.0 0.0 0.0 0.0 0.0 0.0 0.0 0.264819860458374 0.0 0.27228423953056335 0.0 0.0 0.06968864798545837 0.0 0.0 0.2239723652601242 0.2628694176673889 0.0 0.34495699405670166 0.0 0.0 0.0 0.08633950352668762 0.0 0.0 0.0 0.0 0.0 0.0032282769680023193 0.0 0.085918128490448 0.0 0.0 0.0 0.0 0.0 0.0 0.0 0.0 0.0
634938 0.0 0.0 0.0 0.0 0.1963147521018982 0.0 0.0 0.09251891076564789 0.08601748943328857 0.12039057910442352 0.0 0.0 0.0 0.0 0.0 0.004019215703010559 0.0 0.2316358983516693 0.0 0.1748577356338501 0.0 0.0 0.24413995444774628 0.0 0.0 0.2847006320953369 0.26050204038619995 0.16672073304653168 0.29215991497039795 0.0 0.0 0.0 0.13918447494506836 0.0 0.0 0.0 0.0 0.0 0.10012447088956833 0.0 0.13242413103580475 0.0 0.0 0.0 0.0 0.0 0.0 0.0 0.0 0.0
634975 0.0 0.0 0.0 0.0 0.32934579253196716 0.0 0.0 0.17207622528076172 0.0 0.0 0.0 0.0 0.0 0.0 0.0 0.0 0.0 0.18229079246520996 0.0 0.08588283509016037 0.0 0.0 0.13170573115348816 0.0 0.0 0.2596636414527893 0.3659064471721649 0.18326570093631744 0.30785977840423584 0.0 0.0 0.0 0.06669627130031586 0.0 0.0 0.0 0.0 0.0 0.038309648633003235 0.0 0.06271010637283325 0.0 0.0 0.0 0.0 0.0 0.0 0.0 0.0 0.0
640617 0.0 0.0 0.0 0.0 0.12890128791332245 0.0 0.0 0.12588492035865784 0.05736324191093445 0.22087523341178894 0.0 0.0 0.0 0.0 0.0 0.0 0.08970631659030914 0.1276586353778839 0.0 0.23912741243839264 0.0 0.0 0.0 0.1774175763130188 0.0 0.09480228275060654 0.23850089311599731 0.29629528522491455 0.32134073972702026 0.0 0.04627507925033569 0.0 0.10386829078197479 0.0 0.0 0.0 0.0 0.0 0.0 0.0 0.0 0.0 0.2175033986568451 0.0 0.0 0.0 0.0 0.0 0.0 0.0
646809 0.27350926399230957 0.0 0.0 0.0 0.15719003975391388 0.0 0.0 0.0 0.0 0.0 0.0 0.0 0.0 0.0 0.0 0.06284769624471664 0.0 0.18469248712062836 0.0 0.14814358949661255 0.0 0.0 0.10700628161430359 0.0 0.0 0.2430816888809204 0.4042077660560608 0.0 0.0965646356344223 0.0 0.0 0.0 0.16609080135822296 0.0 0.0 0.0 0.0 0.0 0.0 0.0 0.3675939738750458 0.0 0.0 0.0 0.0 0.0 0.0 0.0 0.0 0.0
646837 0.0 0.0 0.0 0.0 0.1326919049024582 0.0 0.0 0.021356388926506042 0.04981277883052826 0.2403368055820465 0.0 0.0 0.0 0.0 0.0 0.0 0.1564275622367859 0.1167151927947998 0.0 0.21235178411006927 0.0 0.0 0.009674936532974243 0.0 0.0 0.1527082920074463 0.3397800326347351 0.14020463824272156 0.25844278931617737 0.0 0.0 0.0 0.06190963089466095 0.0 0.0 0.0 0.0 0.0 0.043857961893081665 0.0 0.11276349425315857 0.0 0.059538424015045166 0.0 0.0 0.0 0.0 0.0 0.0 0.0
647408 0.0 0.0 0.0 0.0 0.0 0.0 0.0 0.0 0.0 0.2964431047439575 0.0 0.0 0.0 0.0 0.0 0.2351399064064026 0.2680606245994568 0.042350009083747864 0.0 0.1463475525379181 0.0 0.0 0.0 0.0 0.0 0.05104582756757736 0.2921201288700104 0.06191831827163696 0.3099103569984436 0.0014917850494384766 0.0 0.0 0.0880080983042717 0.0 0.0 0.0 0.16715455055236816 0.0 0.0 0.0 0.2032793015241623 0.0 0.0 0.0 0.0 0.0 0.0 0.0 0.0 0.0
647447 0.23944918811321259 0.0 0.0 0.0 0.020033881068229675 0.0 0.0 0.0 0.04076271504163742 0.0 0.0 0.0 0.0 0.0 0.0 0.0 0.0 0.0 0.0 0.22874678671360016 0.0 0.0 0.0 0.0 0.0 0.2936480939388275 0.31807634234428406 0.07118560373783112 0.25798600912094116 0.0 0.0 0.0 0.14279627799987793 0.0 0.0 0.0 0.0 0.0 0.0 0.0 0.29788172245025635 0.0 0.0 0.0 0.0 0.0 0.0 0.0 0.0 0.0
66556 0.0 0.0 0.0 0.0 0.04644845426082611 0.0 0.0 0.0 0.0 0.0 0.0 0.0 0.0 0.0 0.0 0.07486927509307861 0.0 0.04697100818157196 0.0 0.16899822652339935 0.0 0.0 0.08019246906042099 0.17714405059814453 0.0 0.0 0.30469900369644165 0.0 0.27679944038391113 0.14124342799186707 0.0 0.0 0.04330052435398102 0.0 0.0 0.0 0.0 0.0 0.0 0.0 0.198761984705925 0.0 0.2636372745037079 0.0 0.0 0.0 0.0 0.0 0.0 0.0
66563 0.1581975370645523 0.0 0.0 0.0 0.27462756633758545 0.0 0.0 0.0 0.0 0.0 0.0 0.0 0.0 0.0 0.0 0.14630994200706482 0.1518060564994812 0.0 0.0 0.26484498381614685 0.0 0.0 0.0 0.0 0.0 0.0 0.2047092616558075 0.0 0.15016135573387146 0.2213234156370163 0.0 0.012316465377807617 0.21361695230007172 0.0 0.0 0.0 0.0 0.0 0.0 0.0 0.2585107088088989 0.0 0.0 0.0 0.0 0.0 0.0 0.0 0.0 0.0
66805 0.2879158854484558 0.0 0.0 0.0 0.3082495629787445 0.0 0.0 0.29781728982925415 0.00895141065120697 0.03540565073490143 0.0 0.0 0.0 0.0 0.0 0.14231055974960327 0.33953773975372314 0.0 0.0 0.3065146207809448 0.0 0.0 0.0 0.0 0.0 0.0 0.17602874338626862 0.0 0.04159821569919586 0.10758815705776215 0.0 0.0 0.030999943614006042 0.0 0.0 0.0 0.0 0.0 0.0 0.0 0.046556249260902405 0.0 0.029644399881362915 0.0 0.0 0.0 0.0 0.0 0.0 0.0
69284 0.001897856593132019 0.0 0.0 0.0 0.07537004351615906 0.0 0.0 0.0 0.0 0.21071405708789825 0.0 0.0 0.0 0.0 0.0 0.0 0.37286320328712463 0.24581336975097656 0.0 0.06986181437969208 0.0 0.0 0.0 0.018354281783103943 0.0 0.0 0.35795310139656067 0.14480622112751007 0.045693397521972656 0.0 0.0 0.0 0.2744775116443634 0.0 0.0 0.0 0.0 0.0 0.0 0.0 0.0 0.0 0.0 0.0 0.0 0.0 0.0 0.0 0.0 0.0
69296 0.12362439930438995 0.0 0.0 0.0 0.043897271156311035 0.0 0.0 0.0 0.0 0.04233714938163757 0.0 0.0 0.0 0.0 0.0 0.0 0.44521069526672363 0.2546151876449585 0.0 0.19983723759651184 0.0 0.0 0.0 0.06261549890041351 0.0 0.209954634308815 0.4208829998970032 0.04470400512218475 0.13498544692993164 0.0 0.0 0.0 0.24118494987487793 0.0 0.0 0.0 0.0 0.0 0.0 0.0 0.0 0.0 0.0 0.0 0.0 0.0 0.0 0.0 0.0 0.0
694759 0.0 0.0 0.0 0.0 0.16395451128482819 0.0 0.0 0.1469966471195221 0.0 0.17474240064620972 0.0 0.0 0.0 0.0 0.0 0.0 0.11302074790000916 0.1305159479379654 0.0 0.0 0.0 0.0 0.0 0.0 0.0 0.20902562141418457 0.21571888029575348 0.11822190880775452 0.13944877684116364 0.0 0.0 0.0 0.21034863591194153 0.0 0.0 0.0 0.0 0.0 0.0 0.0 0.0886867493391037 0.0 0.11902271211147308 0.0 0.0 0.0 0.0 0.0 0.0 0.0
735303 0.0 0.0 0.0 0.0 0.2134612649679184 0.0 0.0 0.054754287004470825 0.0 0.11584824323654175 0.0 0.0 0.0 0.0 0.0 0.2298378348350525 0.08268716931343079 0.0 0.0 0.0006644874811172485 0.0 0.0 0.0 0.07059825956821442 0.0 0.0 0.24765917658805847 0.28254303336143494 0.1998179703950882 0.14093387126922607 0.05393899232149124 0.0 0.07651036977767944 0.0 0.0 0.0 0.0 0.0 0.0 0.0 0.10193243622779846 0.0 0.21270936727523804 0.0 0.0 0.0 0.0 0.0 0.0 0.0
78511 0.0 0.0 0.0 0.0 0.0911758542060852 0.0 0.0 0.0 0.0024239569902420044 0.0 0.0 0.0 0.0 0.0 0.0 0.3958449959754944 0.0 0.0 0.0 0.0 0.0 0.0 0.0 0.16850154101848602 0.0 0.032640404999256134 0.2296888828277588 0.25982603430747986 0.20172032713890076 0.0 0.0 0.0 0.1686677485704422 0.0 0.0 0.0 0.0 0.0 0.3512483239173889 0.0 0.0393168181180954 0.0 0.0 0.0 0.0 0.0 0.0 0.0 0.0 0.0
787016 0.0 0.0 0.0 0.0 0.19937485456466675 0.0 0.0 0.15721848607063293 0.06737059354782104 0.0 0.0 0.0 0.0 0.0 0.0 0.0 0.18060839176177979 0.104359932243824 0.0 0.19269685447216034 0.0 0.0 0.0 0.34390780329704285 0.0 0.0885908305644989 0.152335524559021 0.24117636680603027 0.3521547317504883 0.0 0.0 0.0 0.13026076555252075 0.0 0.0 0.0 0.0598151870071888 0.0 0.08870244026184082 0.0 0.2354716956615448 0.0 0.0 0.0 0.0 0.0 0.0 0.0 0.0 0.0
801170 0.0 0.0 0.0 0.0 0.2478717714548111 0.0 0.0 0.138811856508255 0.0 0.0 0.0 0.0 0.0 0.0 0.0 0.08625306189060211 0.0 0.30793318152427673 0.0 0.20028874278068542 0.0 0.0 0.0 0.0 0.0 0.0 0.16431793570518494 0.0 0.35673344135284424 0.0 0.0 0.0 0.0 0.0 0.0 0.0 0.0 0.0 0.0 0.0 0.07142135500907898 0.0 0.2337716668844223 0.0 0.0 0.0 0.0 0.0 0.0 0.0
81722 0.0 0.0 0.0 0.0 0.2479407787322998 0.0 0.0 0.1687423437833786 0.0 0.18001388013362885 0.0 0.0 0.0 0.0 0.0 0.0 0.2572065591812134 0.07800576835870743 0.0 0.17841124534606934 0.0 0.0 0.12698671221733093 0.1159820705652237 0.0 0.16337920725345612 0.32421422004699707 0.2877892553806305 0.23451200127601624 0.008043169975280762 0.0 0.0 0.12498454004526138 0.0 0.0 0.0 0.0 0.0 0.03070683777332306 0.0 0.0 0.0 0.019216537475585938 0.0 0.0 0.0 0.0 0.0 0.0 0.0
82098 0.09674812853336334 0.0 0.0 0.0 0.0 0.0 0.0 0.12559211254119873 0.20615454018115997 0.19289866089820862 0.0 0.0 0.0 0.0 0.0 0.036176517605781555 0.10306915640830994 0.0 0.0 0.2528323829174042 0.0 0.0 0.0 0.0 0.0 0.05806024372577667 0.1973787397146225 0.0 0.18460553884506226 0.08477666974067688 0.0 0.0 0.1223488599061966 0.0 0.0 0.0 0.0 0.0 0.06862859427928925 0.0 0.2141714096069336 0.0 0.2693767547607422 0.0 0.0 0.0 0.0 0.0 0.0 0.0
84021 0.0 0.0 0.0 0.0 0.28373005986213684 0.0 0.0 0.0 0.0 0.0 0.0 0.0 0.0 0.0 0.0 0.0 0.2487037479877472 0.24500000476837158 0.0 0.0 0.0 0.0 0.0 0.09506358206272125 0.0 0.2816319167613983 0.19979777932167053 0.3661288917064667 0.15373942255973816 0.0 0.0 0.0 0.2579202353954315 0.0 0.0 0.0 0.0 0.0 0.0 0.0 0.0 0.0 0.0 0.0 0.0 0.0 0.0 0.0 0.0 0.0
85352 0.0 0.0 0.0 0.0 0.2040986716747284 0.0 0.0 0.0 0.0 0.12488114833831787 0.0 0.0 0.0 0.0 0.0 0.0 0.013411536812782288 0.0 0.0 0.20397672057151794 0.0 0.0 0.0 0.32706764340400696 0.0 0.0 0.0 0.3409634828567505 0.287295937538147 0.0 0.0 0.0 0.12599390745162964 0.0 0.0 0.0 0.0 0.0 0.0 0.0 0.0 0.0 0.0 0.0 0.0 0.0 0.0 0.0 0.0 0.0
86359 0.0 0.0 0.0 0.0 0.026497453451156616 0.0 0.0 0.06388426572084427 0.0 0.1602592170238495 0.0 0.0 0.0 0.0 0.0 0.19715292751789093 0.3739698529243469 0.0 0.0 0.4372557997703552 0.0 0.0 0.0 0.12414508312940598 0.0 0.0 0.4220895767211914 0.17983171343803406 0.3352106213569641 0.1774202138185501 0.08515670895576477 0.0 0.0 0.0 0.0 0.0 0.0 0.0 0.0 0.0 0.0 0.0 0.0649547278881073 0.0 0.0 0.0 0.0 0.0 0.0 0.0
8865 0.0 0.0 0.0 0.0 0.0 0.0 0.0 0.0 0.0 0.03953118622303009 0.0 0.0 0.0 0.0 0.0 0.18290165066719055 0.3598926067352295 0.14003780484199524 0.0 0.10813533514738083 0.0 0.0 0.0 0.07756263762712479 0.0 0.0 0.26249364018440247 0.09103003144264221 0.24385416507720947 0.14132064580917358 0.0 0.0 0.17773300409317017 0.0 0.0 0.0 0.0 0.0 0.0 0.0 0.36481696367263794 0.0 0.0 0.0 0.0 0.0 0.0 0.0 0.0 0.0
887 0.0 0.0 0.0 0.0 0.0 0.0 0.0 0.0 0.0 0.0 0.0 0.0 0.0 0.0 0.0 0.12194058299064636 0.27906954288482666 0.0 0.0 0.0 0.0 0.0 0.0 0.31998586654663086 0.0 0.0 0.2625519633293152 0.0 0.1960189789533615 0.2809654176235199 0.23833394050598145 0.0 0.0 0.0 0.0 0.0 0.0 0.0 0.0 0.0 0.0 0.0 0.0 0.0 0.0 0.0 0.0 0.0 0.0 0.0
97645 0.001584067940711975 0.0 0.0 0.0 0.16839638352394104 0.0 0.0 0.0 0.035377077758312225 0.13702289760112762 0.0 0.0 0.0 0.0 0.0 0.0 0.08996059000492096 0.0 0.0 0.056133776903152466 0.0 0.0 0.0 0.0436934232711792 0.0 0.12248217314481735 0.1550554484128952 0.25213778018951416 0.24459494650363922 0.01603272557258606 0.0 0.0 0.07843414694070816 0.0 0.0 0.0 0.0 0.0 0.0 0.0 0.14213508367538452 0.0 0.0692174881696701 0.0 0.0 0.0 0.0 0.0 0.0 0.0
98698 0.0 0.0 0.0 0.0 0.13461847603321075 0.0 0.0 0.030362188816070557 0.0 0.0874144583940506 0.0 0.0 0.0 0.0 0.0 0.035643070936203 0.1705939769744873 0.22742199897766113 0.0 0.2005119025707245 0.0 0.0 0.0 0.07419068366289139 0.0 0.1492711305618286 0.19657908380031586 0.2940080463886261 0.22899988293647766 0.0 0.0 0.0 0.24693100154399872 0.0 0.0 0.0 0.0 0.0 0.0 0.0 0.04875577986240387 0.0 0.0 0.0 0.0 0.0 0.0 0.0 0.0 0.0
40 0.0 0.0 0.0 0.0 0.1375901699066162 0.2526562213897705 0.0 0.0 0.02826698124408722 0.18619303405284882 0.0 0.0 0.0 0.0 0.0 0.34642884135246277 0.0 0.19527313113212585 0.0 0.05863633751869202 0.0 0.0 0.07122951000928879 0.13186533749103546 0.0 0.2345297485589981 0.23445285856723785 0.30026981234550476 0.2515135705471039 0.0 0.0 0.044412195682525635 0.04525887966156006 0.0 0.0 0.0 0.0 0.0 0.14163413643836975 0.0 0.0 0.0 0.0 0.0 0.0 0.0 0.12508980929851532 0.0 0.0 0.0
1109017 0.0 0.0 0.0 0.0 0.1800355315208435 0.1380385458469391 0.0 0.07421872764825821 0.04514914005994797 0.13060793280601501 0.0 0.0 0.0 0.0 0.0 0.19962413609027863 0.22084923088550568 0.03945261240005493 0.0 0.07151303440332413 0.0 0.0 0.07012075930833817 0.08521036058664322 0.0 0.13115812838077545 0.16109329462051392 0.25292518734931946 0.12214535474777222 0.05447518825531006 0.11547043919563293 0.0 0.12542259693145752 0.0 0.0 0.0 0.0 0.0 0.1806986927986145 0.0 0.0 0.0 0.055599138140678406 0.0 0.0 0.0 0.0253705233335495 0.0 0.0 0.0
1114442 0.0 0.0 0.0 0.0 0.290933221578598 0.20439034700393677 0.0 0.29312941431999207 0.022024765610694885 0.2506517767906189 0.0 0.0 0.0 0.0 0.0 0.07810073345899582 0.0 0.0 0.0 0.0 0.0 0.0 0.0 0.0 0.0 0.0 0.3205117881298065 0.0 0.012369096279144287 0.0 0.0 0.0 0.03365759551525116 0.0 0.0 0.0 0.0 0.0 0.3584657907485962 0.0 0.0 0.0 0.0713115781545639 0.0 0.0 0.0 0.0 0.0 0.0 0.0
114 0.0 0.0 0.0 0.0 0.0 0.0 0.0 0.3631582260131836 0.0 0.0 0.0 0.0 0.0 0.0 0.0 0.0 0.4946211874485016 0.0 0.0 0.0 0.0 0.0 0.0 0.0 0.0 0.0 0.0 0.0 0.0 0.38127338886260986 0.0 0.0 0.0 0.0 0.0 0.0 0.0 0.0 0.0 0.0 0.0 0.0 0.33779069781303406 0.0 0.0 0.3061097264289856 0.09640085697174072 0.0 0.0 0.0
1103315 0.0 0.0 0.0 0.0 0.0 0.0 0.0 0.535050094127655 0.0 0.0 0.0 0.0 0.0 0.0 0.0 0.0 0.2717829644680023 0.22001922130584717 0.0 0.0 0.0 0.0 0.0 0.0 0.0 0.0 0.0 0.0 0.0 0.20978890359401703 0.0 0.0 0.0 0.0 0.0 0.0 0.0 0.0 0.0 0.0 0.0 0.0 0.16569936275482178 0.0 0.0 0.0 0.0 0.0 0.0 0.0
1105394 0.0 0.0 0.0 0.0 0.0755264014005661 0.0 0.0 0.2585966885089874 0.08559313416481018 0.1837824136018753 0.0 0.0 0.0 0.0 0.0 0.15567538142204285 0.31573277711868286 0.13224390149116516 0.0 0.1262214034795761 0.0 0.0 0.0 0.0 0.0 0.13930800557136536 0.0669986680150032 0.11134228110313416 0.20407940447330475 0.18134477734565735 0.11344165354967117 0.0 0.0 0.0 0.0 0.0 0.08090856671333313 0.0 0.041982173919677734 0.0 0.07271797955036163 0.0 0.2996051013469696 0.0 0.0 0.20670711994171143 0.07651223987340927 0.0 0.0 0.0
1106112 0.0 0.0 0.0 0.0 0.0 0.0 0.0 0.41817352175712585 0.2673357427120209 0.446090430021286 0.0 0.0 0.0 0.0 0.0 0.2714242935180664 0.15715378522872925 0.0 0.0 0.03173275291919708 0.0 0.0 0.0 0.0 0.0 0.0 0.03923659026622772 0.0 0.21150600910186768 0.07109607756137848 0.0 0.0 0.0 0.0 0.0 0.0 0.047882501035928726 0.0 0.04972319304943085 0.0 0.05353297293186188 0.0 0.15901094675064087 0.0 0.0 0.1839444935321808 0.0 0.0 0.0 0.0
1106172 0.0 0.0 0.0 0.0 0.24258902668952942 0.0 0.0 0.12740638852119446 0.08960244059562683 0.0 0.0 0.0 0.0 0.0 0.0 0.1736285388469696 0.34209686517715454 0.021540969610214233 0.0 0.32907795906066895 0.0 0.0 0.13974300026893616 0.0 0.0 0.0 0.0 0.0 0.1912282109260559 0.31801486015319824 0.13594715297222137 0.0 0.0 0.0 0.0 0.0 0.0 0.0 0.021823599934577942 0.0 0.0 0.0 0.21059063076972961 0.0 0.0 0.38615021109580994 0.13948693871498108 0.0 0.0 0.009241774678230286
1106406 0.0 0.0 0.0 0.0 0.0 0.0 0.0 0.35559579730033875 0.0 0.1570514738559723 0.0 0.0 0.0 0.0 0.0 0.0 0.4628143310546875 0.0689331516623497 0.0 0.0 0.0 0.0 0.0 0.0 0.0 0.23384779691696167 0.0 0.0 0.0748528391122818 0.3053153157234192 0.0 0.0 0.0 0.0 0.0 0.0 0.1591891050338745 0.0 0.0 0.0 0.005035966634750366 0.0 0.033723413944244385 0.0 0.0 0.0375821515917778 0.0 0.0 0.0 0.0
1107455 0.0 0.0 0.0 0.0 0.0 0.0 0.0 0.4153136610984802 0.0 0.08864568918943405 0.0 0.0 0.0 0.0 0.0 0.0 0.3640027642250061 0.23502802848815918 0.0 0.0437844842672348 0.0 0.0 0.0 0.0 0.0 0.12181753665208817 0.0 0.0 0.061744324862957 0.2912205159664154 0.0 0.0 0.0 0.0 0.0 0.0 0.1126302033662796 0.0 0.0 0.0 0.0 0.0 0.026403069496154785 0.0 0.0 0.0 0.0 0.0 0.0 0.0
1111052 0.0 0.0 0.0 0.0 0.0 0.0 0.0 0.3233310580253601 0.0 0.0 0.0 0.0 0.0 0.0 0.0 0.0 0.3874068856239319 0.23224212229251862 0.0 0.11870105564594269 0.0 0.0 0.0 0.0 0.0 0.10656709969043732 0.0 0.0 0.10798566043376923 0.33964037895202637 0.055248722434043884 0.0 0.0 0.0 0.0 0.0 0.11021377891302109 0.0 0.0 0.0 0.05991387367248535 0.0 0.20967963337898254 0.0 0.0 0.053546734154224396 0.041850969195365906 0.0 0.0 0.0
1114125 0.0 0.0 0.0 0.0 0.0 0.0 0.0 0.2721198499202728 0.0414501428604126 0.2687745988368988 0.0 0.0 0.0 0.0 0.0 0.08931273221969604 0.41966933012008667 0.0 0.0 0.16039787232875824 0.0 0.0 0.0 0.0 0.0 0.007486678659915924 0.07506826519966125 0.0 0.12415830790996552 0.20718277990818024 0.0 0.0 0.0 0.0 0.0 0.0 0.03158915787935257 0.0 0.0 0.0 0.10718034207820892 0.0 0.24180054664611816 0.0 0.0 0.1600499153137207 0.0 0.0 0.0 0.0
1117942 0.0 0.0 0.0 0.0 0.0 0.0 0.0 0.22928966581821442 0.0 0.08528153598308563 0.0 0.0 0.0 0.0 0.0 0.05018983036279678 0.3525184392929077 0.009794771671295166 0.0 0.037070974707603455 0.0 0.0 0.0 0.0 0.0 0.040503423660993576 0.0 0.0 0.142002671957016 0.2337939441204071 0.2693523168563843 0.0 0.0 0.0 0.0 0.0 0.10296890139579773 0.0 0.002895668148994446 0.0 0.14116741716861725 0.0 0.34913450479507446 0.0 0.0 0.03548548370599747 0.0 0.0 0.0 0.0
1118245 0.0 0.0 0.0 0.0 0.0 0.0 0.0 0.37726619839668274 0.0 0.1524135321378708 0.0 0.0 0.0 0.0 0.0 0.23134824633598328 0.6311197280883789 0.0 0.0 0.0 0.0 0.0 0.0 0.0 0.0 0.0 0.0 0.0 0.04470408707857132 0.0 0.21937038004398346 0.0 0.0 0.0 0.0 0.0 0.24699535965919495 0.0 0.0 0.0 0.0 0.0 0.16767248511314392 0.0 0.0 0.3370378911495209 0.080742746591568 0.0 0.0 0.0
1118332 0.0 0.0 0.0 0.0 0.017795994877815247 0.0 0.0 0.224644735455513 0.05651456117630005 0.20795057713985443 0.0 0.0 0.0 0.0 0.0 0.1967385709285736 0.3336454927921295 0.12942275404930115 0.0 0.09728303551673889 0.0 0.0 0.0 0.0 0.0 0.11662424355745316 0.06553806364536285 0.09115734696388245 0.19529114663600922 0.16330024600028992 0.14683109521865845 0.0 0.0 0.0 0.0 0.0 0.08735629916191101 0.0 0.046364083886146545 0.0 0.04289822280406952 0.0 0.30176883935928345 0.0 0.0 0.18026450276374817 0.06328283250331879 0.0 0.0 0.0
1120170 0.0 0.0 0.0 0.0 0.0013160556554794312 0.0 0.0 0.24990490078926086 0.07002091407775879 0.19133326411247253 0.0 0.0 0.0 0.0 0.0 0.1159013956785202 0.2967414855957031 0.1600417047739029 0.0 0.14447954297065735 0.0 0.0 0.0 0.0 0.0 0.11920250952243805 0.03508011996746063 0.06469391286373138 0.17650502920150757 0.19848883152008057 0.12076874077320099 0.0 0.0 0.0 0.0 0.0 0.09122432768344879 0.0 0.05563816428184509 0.0 0.09766526520252228 0.0 0.3556678593158722 0.0 0.0 0.21322709321975708 0.09805765748023987 0.0 0.0 0.0
1126029 0.0 0.0 0.0 0.0 0.179623544216156 0.0 0.0 0.23308652639389038 0.07867705821990967 0.0 0.0 0.0 0.0 0.0 0.0 0.2199704647064209 0.2711946964263916 0.0 0.0 0.0 0.0 0.0 0.0 0.0 0.0 0.1215602234005928 0.0 0.11056295037269592 0.20258891582489014 0.191879540681839 0.029993295669555664 0.0 0.0 0.0 0.0 0.0 0.0 0.0 0.0 0.0 0.0 0.0 0.34471940994262695 0.0 0.0 0.1501338928937912 0.0 0.0 0.0 0.0
124064 0.0 0.0 0.0 0.0 0.0 0.0 0.0 0.42243123054504395 0.0 0.0 0.0 0.0 0.0 0.0 0.0 0.0 0.3250274658203125 0.0 0.0 0.25539931654930115 0.0 0.0 0.0 0.0 0.0 0.0 0.0 0.0 0.23476406931877136 0.397164523601532 0.19255316257476807 0.0 0.0 0.0 0.0 0.0 0.0 0.0 0.0 0.0 0.0 0.0 0.35503053665161133 0.0 0.0 0.0 0.0 0.0 0.0 0.0
128 0.0 0.0 0.0 0.0 0.23125037550926208 0.0 0.0 0.48104584217071533 0.0 0.0 0.0 0.0 0.0 0.0 0.0 0.0 0.46510669589042664 0.0 0.0 0.0002868473529815674 0.0 0.0 0.0005185604095458984 0.0 0.0 0.08161048591136932 0.0 0.0 0.12138847261667252 0.17672771215438843 0.0 0.0 0.0 0.0 0.0 0.0 0.0 0.0 0.0 0.0 0.0 0.0 0.11399848759174347 0.0 0.0 0.08332033455371857 0.0 0.0 0.0 0.0
130 0.0 0.0 0.0 0.0 0.0 0.0 0.0 0.21910211443901062 0.0 0.11080706864595413 0.0 0.0 0.0 0.0 0.0 0.0 0.4969850778579712 0.32232430577278137 0.0 0.0 0.0 0.0 0.0 0.0 0.0 0.34846723079681396 0.0 0.0 0.1481013149023056 0.3850621283054352 0.04884963482618332 0.0 0.0 0.0 0.0 0.0 0.0 0.0 0.0 0.0 0.0 0.0 0.3770075738430023 0.0 0.0 0.2145499885082245 0.018099546432495117 0.0 0.0 0.0
136665 0.0 0.0 0.0 0.0 0.0 0.0 0.0 0.16028913855552673 0.0 0.20608852803707123 0.0 0.0 0.0 0.0 0.0 0.0679045170545578 0.3747401237487793 0.1669943481683731 0.0 0.0 0.0 0.0 0.0 0.0 0.0 0.22808165848255157 0.022093310952186584 0.0 0.15293990075588226 0.17023350298404694 0.0769997090101242 0.029863029718399048 0.0 0.0 0.0 0.0 0.12435757368803024 0.0 0.0 0.0 0.0 0.0 0.41014036536216736 0.0 0.0 0.2668038010597229 0.12178388983011246 0.0 0.0 0.0
191404 0.0 0.0 0.0 0.0 0.0755854994058609 0.0 0.0 0.2296556532382965 0.047422267496585846 0.16611070930957794 0.0 0.0 0.0 0.0 0.0 0.15650194883346558 0.3162873089313507 0.12490878999233246 0.0 0.085689976811409 0.0 0.0 0.0 0.0 0.0 0.15138310194015503 0.07273716479539871 0.09521950781345367 0.18287254869937897 0.20312699675559998 0.1260502189397812 0.0 0.0 0.0 0.0 0.0 0.07909190654754639 0.0 0.05157962441444397 0.0 0.04586409032344818 0.0 0.2952480912208557 0.0 0.0 0.1607854664325714 0.06610474735498428 0.0 0.0 0.0
193742 0.0 0.0 0.0 0.0 0.15444275736808777 0.0 0.0 0.2953757047653198 0.0 0.0 0.0 0.0 0.0 0.0 0.0 0.1631746143102646 0.43427056074142456 0.0 0.0 0.06499721109867096 0.0 0.0 0.14831949770450592 0.0 0.0 0.09783751517534256 0.07727687060832977 0.0 0.24340015649795532 0.36712414026260376 0.0 0.0 0.0 0.0 0.0 0.0 0.0 0.0 0.0 0.0 0.05297759175300598 0.0 0.0 0.0 0.0 0.0 0.0 0.0 0.0 0.0
23258 0.0 0.0 0.0 0.0 0.042243435978889465 0.0 0.0 0.10126091539859772 0.0 0.0 0.0 0.0 0.0 0.0 0.0 0.14965276420116425 0.24877828359603882 0.25576847791671753 0.0 0.0 0.0 0.0 0.028098955750465393 0.0 0.0 0.0 0.0 0.03340941667556763 0.19291278719902039 0.28612300753593445 0.04457920044660568 0.1168072521686554 0.0 0.0 0.0 0.0 0.0 0.0 0.0 0.0 0.0 0.0 0.3143889904022217 0.0 0.0 0.38155630230903625 0.2770078480243683 0.0 0.0 0.0
28227 0.0 0.0 0.0 0.0 0.0 0.0 0.0 0.5246926546096802 0.0 0.26789307594299316 0.0 0.0 0.0 0.0 0.0 0.0 0.4809831976890564 0.0 0.0 0.0 0.0 0.0 0.0 0.0 0.0 0.196459099650383 0.0 0.0 0.0 0.27369171380996704 0.0 0.0 0.0 0.0 0.0 0.0 0.21438640356063843 0.0 0.0 0.0 0.022225871682167053 0.0 0.23485060036182404 0.0 0.0 0.0 0.0 0.0 0.0 0.0
28287 0.0 0.0 0.0 0.0 0.18952056765556335 0.0 0.0 0.1616707146167755 0.0 0.0 0.0 0.0 0.0 0.0 0.0 0.0 0.48672670125961304 0.0 0.0 0.13075298070907593 0.0 0.0 0.0 0.1108250692486763 0.0 0.0 0.0 0.0 0.28464651107788086 0.28103941679000854 0.0 0.0 0.0 0.0 0.0 0.0 0.0 0.0 0.0 0.0 0.0 0.0 0.0 0.0 0.0 0.32465529441833496 0.0 0.0 0.0 0.0
28350 0.0 0.0 0.0 0.0 0.0 0.0 0.0 0.40691274404525757 0.0 0.19346775114536285 0.0 0.0 0.0 0.0 0.0 0.0 0.42271527647972107 0.0 0.0 0.0 0.0 0.0 0.0 0.0 0.0 0.0 0.0 0.0 0.07278747856616974 0.3502841591835022 0.31160587072372437 0.0 0.0 0.0 0.0 0.0 0.0992034524679184 0.0 0.0 0.0 0.22406646609306335 0.0 0.16105777025222778 0.0 0.0 0.0 0.0 0.0 0.0 0.2262461632490158
28387 0.0 0.0 0.0 0.0 0.0 0.0 0.0 0.4121365547180176 0.0 0.21424387395381927 0.0 0.0 0.0 0.0 0.0 0.254973828792572 0.3425063490867615 0.0 0.0 0.3495592474937439 0.0 0.0 0.0 0.0 0.0 0.0 0.0 0.0 0.1532912254333496 0.25063833594322205 0.12419577687978745 0.0 0.0 0.0 0.0 0.0 0.02810424566268921 0.0 0.0 0.0 0.0 0.0 0.3750489056110382 0.0 0.0 0.14716246724128723 0.11225124448537827 0.0 0.0 0.0
28471 0.0 0.0 0.0 0.0 0.22852680087089539 0.0 0.0 0.34939199686050415 0.024006448686122894 0.0 0.0 0.0 0.0 0.0 0.0 0.12692955136299133 0.4792252779006958 0.0 0.0 0.20741848647594452 0.0 0.0 0.0 0.0 0.0 0.0 0.0 0.0 0.12051273882389069 0.3234254717826843 0.0 0.0 0.0 0.0 0.0 0.0 0.0 0.0 0.0 0.0 0.21484047174453735 0.0 0.16404393315315247 0.0 0.0 0.0 0.0 0.0 0.0 0.0
28485 0.0 0.0 0.0 0.0 0.0 0.0 0.0 0.07370854169130325 0.0 0.11719968914985657 0.0 0.0 0.0 0.0 0.0 0.0 0.30324485898017883 0.18232481181621552 0.0 0.0 0.0 0.0 0.12893714010715485 0.0 0.0 0.16047245264053345 0.017527669668197632 0.0 0.14139904081821442 0.4310452938079834 0.0 0.0 0.0 0.0 0.0 0.0 0.12495292723178864 0.0 0.0 0.0 0.0 0.0 0.20754088461399078 0.0 0.0 0.0 0.09593741595745087 0.0 0.0 0.0
341188 0.0 0.0 0.0 0.0 0.0 0.0 0.0 0.31365421414375305 0.0 0.12788572907447815 0.0 0.0 0.0 0.0 0.0 0.4160572588443756 0.565318763256073 0.0 0.0 0.0 0.0 0.0 0.0 0.0 0.0 0.0 0.0 0.0 0.06154732406139374 0.09281051158905029 0.2490471452474594 0.0 0.0 0.0 0.0 0.0 0.0 0.0 0.055050283670425415 0.0 0.0 0.0 0.2697153091430664 0.0 0.0 0.2851850986480713 0.0 0.0 0.0 0.0
38480 0.0 0.0 0.0 0.0 0.1730346381664276 0.0 0.0 0.027617350220680237 0.0 0.0 0.0 0.0 0.0 0.0 0.0 0.1700817197561264 0.4620455205440521 0.2259107232093811 0.0 0.08630002290010452 0.0 0.0 0.09492900967597961 0.0 0.0 0.1030372753739357 0.0 0.0 0.11605434119701385 0.34158855676651 0.0 0.0 0.0 0.0 0.0 0.0 0.0 0.0 0.012963727116584778 0.0 0.0 0.0 0.26864951848983765 0.0 0.0 0.0969865471124649 0.00819428265094757 0.0 0.0 0.0
39403 0.0 0.0 0.0 0.0 0.0 0.0 0.0 0.2601647973060608 0.12067250907421112 0.19694294035434723 0.0 0.0 0.0 0.0 0.0 0.04214002192020416 0.511293351650238 0.0 0.0 0.2098831832408905 0.0 0.0 0.0 0.0 0.0 0.0 0.0 0.0 0.16122621297836304 0.17829151451587677 0.0 0.0 0.0 0.0 0.0 0.0 0.0 0.0 0.0 0.0 0.13565461337566376 0.0 0.31946051120758057 0.0 0.0 0.30095991492271423 0.0 0.0 0.0 0.0
434 0.0 0.0 0.0 0.0 0.34780043363571167 0.0 0.0 0.36169520020484924 0.0 0.0 0.0 0.0 0.0 0.0 0.0 0.0 0.33384793996810913 0.1828296035528183 0.0 0.0 0.0 0.0 0.08375008404254913 0.0 0.0 0.29368722438812256 0.0 0.0 0.34219908714294434 0.33141961693763733 0.13791711628437042 0.0 0.0 0.0 0.0 0.0 0.0 0.0 0.0 0.0 0.0 0.0 0.2417900264263153 0.0 0.0 0.03441513329744339 0.13301970064640045 0.0 0.0 0.0
55968 0.0 0.0 0.0 0.0 0.037331387400627136 0.0 0.0 0.0700375884771347 0.0 0.19175906479358673 0.0 0.0 0.0 0.0 0.0 0.1932636797428131 0.3343096077442169 0.0 0.0 0.003612220287322998 0.0 0.0 0.06789958477020264 0.0 0.0 0.0 0.0 0.0 0.1239679679274559 0.40677547454833984 0.3224125802516937 0.0 0.0 0.0 0.0 0.0 0.06252077966928482 0.0 0.14174029231071472 0.0 0.0 0.0 0.1407327502965927 0.0 0.0 0.0 0.0 0.0 0.0 0.0
58540 0.0 0.0 0.0 0.0 0.07658997178077698 0.0 0.0 0.31912916898727417 0.02621682733297348 0.2085532248020172 0.0 0.0 0.0 0.0 0.0 0.18883174657821655 0.27920451760292053 0.0 0.0 0.21342897415161133 0.0 0.0 0.00682009756565094 0.0 0.0 0.0 0.01108480989933014 0.0 0.2227456420660019 0.39854586124420166 0.20011234283447266 0.0 0.0 0.0 0.0 0.0 0.08593194931745529 0.0 0.19166898727416992 0.0 0.11332660168409348 0.0 0.1821044385433197 0.0 0.0 0.0 0.0 0.0 0.0 0.0
6155 0.0 0.0 0.0 0.0 0.17890463769435883 0.0 0.0 0.23301661014556885 0.0 0.0 0.0 0.0 0.0 0.0 0.0 0.13534873723983765 0.49104565382003784 0.0 0.0 0.0675441324710846 0.0 0.0 0.2135419249534607 0.0 0.0 0.10170891880989075 0.0 0.0 0.14271636307239532 0.31513088941574097 0.11459577083587646 0.0 0.0 0.0 0.0 0.0 0.0 0.0 0.0 0.0 0.0 0.0 0.16753479838371277 0.0 0.0 0.03602643311023712 0.0 0.0 0.0 0.0
6170 0.0 0.0 0.0 0.0 0.1624600887298584 0.0 0.0 0.25786420702934265 0.07260902225971222 0.1618892252445221 0.0 0.0 0.0 0.0 0.0 0.15866020321846008 0.336606502532959 0.07955781370401382 0.0 0.11852069944143295 0.0 0.0 0.0 0.0 0.0 0.10791987180709839 0.02681177854537964 0.11780542135238647 0.16243290901184082 0.17138415575027466 0.10153570771217346 0.0 0.0 0.0 0.0 0.0 0.022912658751010895 0.0 0.050495028495788574 0.0 0.09477230161428452 0.0 0.29339122772216797 0.0 0.0 0.20074200630187988 0.055610187351703644 0.0 0.0 0.0
6196 0.0 0.0 0.0 0.0 0.2156064212322235 0.0 0.0 0.3213619291782379 0.024083495140075684 0.0 0.0 0.0 0.0 0.0 0.0 0.034685343503952026 0.2863825857639313 0.0 0.0 0.21136753261089325 0.0 0.0 0.2337842434644699 0.0 0.0 0.0 0.0 0.0 0.21957626938819885 0.1804141402244568 0.10410356521606445 0.0 0.0 0.0 0.0 0.0 0.0 0.0 0.028364256024360657 0.0 0.0 0.0 0.36804744601249695 0.0 0.0 0.33368438482284546 0.08698313683271408 0.0 0.0 0.0
6220 0.0 0.0 0.0 0.0 0.0 0.0 0.0 0.6560881733894348 0.0 0.0 0.0 0.0 0.0 0.0 0.0 0.0 0.3644592761993408 0.11161356419324875 0.0 0.0918029397726059 0.0 0.0 0.0 0.018161669373512268 0.0 0.0 0.0 0.0 0.17589597404003143 0.34612706303596497 0.26267534494400024 0.0 0.0 0.0 0.0 0.0 0.0763363391160965 0.0 0.0 0.0 0.0 0.0 0.34678250551223755 0.0 0.0 0.0 0.08959154784679413 0.0 0.0 0.0
64484 0.0 0.0 0.0 0.0 0.05331481993198395 0.0 0.0 0.2516792416572571 0.0875532329082489 0.19281604886054993 0.0 0.0 0.0 0.0 0.0 0.13297225534915924 0.30988237261772156 0.1322936713695526 0.0 0.09921818971633911 0.0 0.0 0.0 0.0 0.0 0.15277938544750214 0.04546278715133667 0.12350410223007202 0.19453373551368713 0.17509222030639648 0.1240280270576477 0.0 0.0 0.0 0.0 0.0 0.09072032570838928 0.0 0.03704895079135895 0.0 0.09440535306930542 0.0 0.32219651341438293 0.0 0.0 0.23194387555122375 0.10001763701438904 0.0 0.0 0.0
7432 0.0 0.0 0.0 0.0 0.0 0.0 0.0 0.332154780626297 0.0 0.15912461280822754 0.0 0.0 0.0 0.0 0.0 0.0 0.33911776542663574 0.19136428833007812 0.0 0.015985265374183655 0.0 0.0 0.0 0.0 0.0 0.213084876537323 0.0 0.0 0.13146473467350006 0.15411512553691864 0.0 0.0 0.0 0.0 0.0 0.0 0.057422854006290436 0.0 0.0 0.0 0.0 0.0 0.14248397946357727 0.0 0.0 0.09944911301136017 0.0 0.0 0.0 0.0
755217 0.0 0.0 0.0 0.0 0.0 0.0 0.0 0.3038947284221649 0.0 0.3645056188106537 0.0 0.0 0.0 0.0 0.0 0.0 0.20353204011917114 0.0 0.0 0.11097592115402222 0.0 0.0 0.0 0.0 0.0 0.0 0.0 0.0 0.06247055530548096 0.09832306206226349 0.2742859125137329 0.0 0.03482012450695038 0.0 0.0 0.0 0.19804783165454865 0.0 0.0 0.0 0.0 0.0 0.2763654589653015 0.0 0.0 0.0 0.0 0.0 0.0 0.12460176646709442
8213 0.0 0.0 0.0 0.0 0.09874605387449265 0.0 0.0 0.2066182792186737 0.0 0.18013571202754974 0.0 0.0 0.0 0.0 0.0 0.18699109554290771 0.5163435935974121 0.07797916233539581 0.0 0.0 0.0 0.0 0.12095925211906433 0.0 0.0 0.2128911018371582 0.0 0.0 0.1459568291902542 0.2829340398311615 0.0 0.0 0.0 0.0 0.0 0.0 0.022234678268432617 0.0 0.050598472356796265 0.0 0.0 0.0 0.0351986289024353 0.0 0.0 0.3645733594894409 0.04471510648727417 0.0 0.0 0.0
91975 0.0 0.0 0.0 0.0 0.0656082034111023 0.0 0.0 0.3560696542263031 0.0 0.269943505525589 0.0 0.0 0.0 0.0 0.0 0.1321697235107422 0.5122596025466919 0.0 0.0 0.13856899738311768 0.0 0.0 0.0 0.0 0.0 0.0 0.0 0.0 0.02864251285791397 0.34856125712394714 0.0 0.0 0.0 0.0 0.0 0.0 0.0 0.0 0.0 0.0 0.11338403820991516 0.0 0.01051601767539978 0.0 0.0 0.0 0.0 0.0 0.0 0.0
976334 0.0 0.0 0.0 0.0 0.0 0.0 0.0 0.5201394557952881 0.0 0.11977145075798035 0.0 0.0 0.0 0.0 0.0 0.2189307063817978 0.41637831926345825 0.0 0.0 0.2809249758720398 0.0 0.0 0.10894856601953506 0.0 0.0 0.0 0.0 0.09433861076831818 0.1713344305753708 0.3393673896789551 0.0 0.0 0.0 0.0 0.0 0.0 0.0 0.0 0.042463406920433044 0.0 0.0 0.0 0.0 0.0 0.0 0.1209186390042305 0.012205347418785095 0.0 0.0 0.0
117 0.0 0.0 0.0 0.0 0.0 0.0 0.0 0.11718800663948059 0.0 0.0 0.0 0.0 0.0 0.0 0.0 0.0 0.565967321395874 0.0 0.0 0.0 0.0 0.0 0.0 0.0 0.0 0.0 0.0 0.0 0.0375596359372139 0.06766283512115479 0.2531399130821228 0.0 0.0 0.0 0.0 0.0 0.0 0.0 0.0 0.0 0.0 0.0 0.5341416597366333 0.0 0.0 0.07008416950702667 0.0 0.0 0.0 0.0
1109581 0.0 0.0 0.0 0.0 0.0 0.0 0.0 0.2594171464443207 0.0 0.0 0.0 0.0 0.0 0.0 0.0 0.23205235600471497 0.4990755617618561 0.0 0.0 0.1453017145395279 0.0 0.0 0.0 0.12225964665412903 0.0 0.0 0.0 0.0 0.007971435785293579 0.026530906558036804 0.2659871280193329 0.0 0.042036280035972595 0.0 0.0 0.0 0.13441705703735352 0.0 0.11214927583932877 0.0 0.013031229376792908 0.0 0.21702072024345398 0.0 0.0 0.0 0.18320715427398682 0.0 0.0 0.04859515279531479
149669 0.0 0.0 0.0 0.0 0.33790159225463867 0.0 0.0 0.0 0.0 0.0 0.0 0.0 0.0 0.0 0.0 0.346595823764801 0.2772183120250702 0.0 0.0 0.0 0.0 0.0 0.11521566659212112 0.067861407995224 0.0 0.04207901656627655 0.11417386680841446 0.0 0.0016298741102218628 0.2068844437599182 0.14277292788028717 0.0 0.0 0.0 0.0 0.0 0.0 0.0 0.0 0.0 0.08023539185523987 0.0 0.23922166228294373 0.0 0.0 0.0 0.0 0.0 0.0 0.0
17476 0.0 0.0 0.0 0.0 0.0 0.0 0.0 0.0 0.0 0.07079709321260452 0.0 0.0 0.0 0.0 0.0 0.23485633730888367 0.48012077808380127 0.0 0.0 0.0 0.0 0.0 0.2201807051897049 0.0 0.0 0.0 0.2726203203201294 0.0 0.0 0.36301785707473755 0.34294015169143677 0.0 0.07538416981697083 0.0 0.0 0.0 0.10465928912162781 0.0 0.12859871983528137 0.0 0.0 0.0 0.024612605571746826 0.0 0.0 0.0 0.0 0.0 0.0 0.0575067400932312
189708 0.0 0.0 0.0 0.0 0.2875463664531708 0.0 0.0 0.0 0.0 0.0 0.0 0.0 0.0 0.0 0.0 0.1546444594860077 0.30734142661094666 0.0 0.0 0.006251975893974304 0.0 0.0 0.06067030876874924 0.02704751491546631 0.0 0.0980200469493866 0.0917750895023346 0.0 0.07805027812719345 0.23134371638298035 0.2894600033760071 0.0 0.013423338532447815 0.0 0.0 0.0 0.0422564372420311 0.0 0.11414440721273422 0.0 0.22623465955257416 0.0 0.3172265589237213 0.0 0.0 0.02752622961997986 0.022444680333137512 0.0 0.0 0.0
206259 0.0 0.0 0.0 0.0 0.09594570845365524 0.08102204650640488 0.0 0.4559001624584198 0.011325076222419739 0.20889532566070557 0.0 0.0 0.0 0.0 0.0 0.15205520391464233 0.35542088747024536 0.0 0.0 0.0 0.0 0.0 0.2478014975786209 0.0 0.0 0.09934794902801514 0.12262950837612152 0.15167394280433655 0.09045547246932983 0.13127876818180084 0.1765148937702179 0.0 0.0 0.0 0.0 0.0 0.0 0.0 0.022312775254249573 0.0 0.0 0.0 0.26008346676826477 0.0 0.0 0.21703597903251648 0.0 0.0 0.0 0.0
28202 0.0 0.0 0.0 0.0 0.09072117507457733 0.0 0.0 0.4200063943862915 0.0 0.0 0.0 0.0 0.0 0.0 0.0 0.0 0.28925415873527527 0.20780792832374573 0.0 0.3313788175582886 0.0 0.0 0.0 0.08220244944095612 0.0 0.0 0.0 0.0 0.09275824576616287 0.31812021136283875 0.050972580909729004 0.0 0.0 0.0 0.0 0.0 0.0 0.0 0.0 0.0 0.18396234512329102 0.0 0.1911039501428604 0.0 0.0 0.0 0.04539862275123596 0.0 0.0 0.0
28278 0.0 0.0 0.0 0.0 0.0 0.0 0.0 0.26284030079841614 0.0 0.0 0.0 0.0 0.0 0.0 0.0 0.0 0.1619177758693695 0.0 0.0 0.35499876737594604 0.0 0.0 0.16296745836734772 0.0 0.0 0.0 0.0 0.0 0.0 0.35568100214004517 0.1961340457201004 0.0 0.0 0.0 0.0 0.0 0.0 0.0 0.0 0.0 0.0 0.0 0.3471100330352783 0.0 0.0 0.0 0.0 0.0 0.0 0.0
32872 0.0 0.0 0.0 0.0 0.0 0.22353819012641907 0.0 0.4537815451622009 0.0 0.0 0.0 0.0 0.0 0.0 0.0 0.10678434371948242 0.6583279967308044 0.0 0.0 0.0 0.0 0.0 0.21654485166072845 0.0 0.0 0.0 0.0 0.0 0.0 0.0 0.2676240801811218 0.0 0.14992476999759674 0.0 0.0 0.0 0.18710362911224365 0.0 0.0716429352760315 0.0 0.0 0.0 0.19834932684898376 0.0 0.0 0.14429549872875214 0.10399547964334488 0.0 0.0 0.022810757160186768
33013 0.0 0.0 0.0 0.0 0.0 0.049508437514305115 0.0 0.06385599076747894 0.0 0.10778574645519257 0.0 0.0 0.0 0.0 0.0 0.0 0.4938029646873474 0.03812819719314575 0.0 0.19679303467273712 0.0 0.0 0.0 0.0 0.0 0.10956910997629166 0.033173903822898865 0.0 0.0 0.0 0.0 0.0 0.1400962471961975 0.0 0.0 0.0 0.02237701416015625 0.0 0.12442077696323395 0.0 0.06940443813800812 0.0 0.14609232544898987 0.0 0.0 0.06263935565948486 0.015430226922035217 0.0 0.0 0.0
6214 0.0 0.0 0.0 0.0 0.0 0.0 0.0 0.27184823155403137 0.0 0.0 0.0 0.0 0.0 0.0 0.0 0.19882240891456604 0.16988079249858856 0.0 0.0 0.0 0.0 0.0 0.2614579200744629 0.0 0.0 0.0 0.0 0.0 0.0 0.47255873680114746 0.1392366886138916 0.0 0.0 0.0 0.0 0.0 0.0 0.0 0.0 0.0 0.0 0.0 0.3750346302986145 0.0 0.0 0.0 0.0719720795750618 0.0 0.0 0.0
75674 0.0 0.0 0.0 0.0 0.3062635064125061 0.0 0.0 0.11480768769979477 0.022418498992919922 0.0 0.0 0.0 0.0 0.0 0.0 0.0 0.5526567697525024 0.0 0.0 0.0 0.0 0.0 0.0 0.0 0.0 0.09274446964263916 0.0 0.1705910861492157 0.0 0.0 0.308501660823822 0.0 0.0 0.0 0.0 0.0 0.0 0.0 0.19458287954330444 0.0 0.0 0.0 0.22220027446746826 0.0 0.0 0.0 0.0 0.0 0.0 0.0
20526 0.0 0.0 0.0 0.0 0.0 0.0 0.0 0.387094646692276 0.0 0.2251182645559311 0.0 0.0 0.0 0.0 0.0 0.0 0.5157444477081299 0.0 0.0 0.0 0.0 0.0 0.0 0.0 0.0 0.0 0.0 0.0 0.0 0.2558821141719818 0.0 0.0 0.0 0.0 0.0 0.0 0.0 0.0 0.20426873862743378 0.0 0.1551395058631897 0.0 0.03784686326980591 0.0 0.0 0.0 0.0 0.0 0.0 0.0
13960 0.0 0.0 0.0 0.0 0.0 0.0 0.0 0.18525370955467224 0.0 0.0 0.0 0.0 0.0 0.0 0.0 0.0 0.32724636793136597 0.2887715995311737 0.0 0.02508401870727539 0.0 0.0 0.0 0.07280917465686798 0.0 0.047277409583330154 0.0 0.0 0.09780652821063995 0.1723674088716507 0.20936886966228485 0.0 0.0 0.0 0.0 0.0 0.0 0.0 0.0 0.0 0.0 0.0 0.45009708404541016 0.0 0.0 0.0 0.012331277132034302 0.0 0.0 0.0
345340 0.0 0.0 0.0 0.0 0.0 0.0 0.0 0.11167683452367783 0.0 0.0 0.0 0.0 0.0 0.0 0.0 0.19251327216625214 0.5488107800483704 0.2000325620174408 0.0 0.39603668451309204 0.0 0.0 0.0 0.0 0.0 0.0 0.0 0.14471331238746643 0.0 0.31715431809425354 0.0 0.0 0.0 0.0 0.0 0.0 0.0 0.0 0.0 0.0 0.0 0.0 0.3802579939365387 0.0 0.0 0.1406881958246231 0.13783390820026398 0.0 0.0 0.0
288 0.0 0.0 0.0 0.0 0.22488148510456085 0.0 0.0 0.08428981155157089 0.0872582271695137 0.09015164524316788 0.0 0.0 0.0 0.0 0.0 0.0 0.17553119361400604 0.0 0.0 0.0 0.0 0.0 0.0 0.0 0.0 0.0 0.0 0.0 0.0 0.3365201950073242 0.0 0.0 0.022918418049812317 0.0 0.0 0.0 0.0 0.0 0.2620117664337158 0.0 0.33637744188308716 0.0 0.11981181800365448 0.0 0.0 0.0 0.0 0.0 0.0 0.0
1118092 0.0 0.0 0.0 0.0 0.3468482494354248 0.0 0.0 0.30905893445014954 0.08288925886154175 0.27102816104888916 0.0 0.0 0.0 0.0 0.0 0.0 0.3908724784851074 0.0 0.0 0.0 0.0 0.0 0.0 0.0 0.0 0.0 0.0 0.10019330680370331 0.0 0.0 0.0 0.0 0.0 0.0 0.0 0.0 0.0 0.0 0.09745030105113983 0.0 0.0 0.0 0.1571049690246582 0.0 0.0 0.0 0.0 0.0 0.0 0.0
36167 0.0 0.0 0.0 0.0 0.2947438359260559 0.0 0.0 0.2396104335784912 0.07543017715215683 0.0 0.0 0.0 0.0 0.0 0.0 0.0 0.15400701761245728 0.0 0.0 0.0 0.0 0.0 0.0 0.0 0.0 0.0 0.0 0.15817782282829285 0.1723664402961731 0.3222771883010864 0.0 0.0 0.0 0.0 0.0 0.0 0.0 0.0 0.15851354598999023 0.0 0.0832078605890274 0.0 0.2377047836780548 0.0 0.0 0.0 0.0 0.0 0.0 0.0
424 0.0 0.0 0.0 0.0 0.196030393242836 0.0 0.0 0.0 0.0 0.0 0.0 0.0 0.0 0.0 0.0 0.0 0.13660499453544617 0.0 0.0 0.0 0.0 0.0 0.21210786700248718 0.032132431864738464 0.0 0.2971099019050598 0.0 0.06171059608459473 0.055211253464221954 0.1418503373861313 0.07290992885828018 0.0 0.0 0.0 0.0 0.0 0.0 0.0 0.292574405670166 0.0 0.12309161573648453 0.0 0.3267842233181 0.0 0.0 0.0 0.00875110924243927 0.0 0.0 0.0
1135125 0.0 0.0 0.0 0.0 0.2551584839820862 0.0 0.0 0.3201695382595062 0.0 0.0 0.0 0.0 0.0 0.0 0.0 0.12377560138702393 0.07123996317386627 0.0 0.0 0.18232133984565735 0.0 0.0 0.1584528535604477 0.3128984570503235 0.0 0.09437331557273865 0.1772971749305725 0.0 0.1510043740272522 0.0 0.04254232347011566 0.0 0.08496960997581482 0.0 0.0 0.0 0.0 0.0 0.39154255390167236 0.0 0.0 0.0 0.0 0.0 0.0 0.0 0.20371368527412415 0.0 0.0 0.0
218666 0.0 0.0 0.0 0.0 0.0 0.06349778920412064 0.0 0.0638764277100563 0.0 0.12262247502803802 0.0 0.0 0.0 0.0 0.0 0.02987205982208252 0.3380337357521057 0.0 0.0 0.03188610076904297 0.0 0.0 0.0 0.015775784850120544 0.0 0.19389358162879944 0.06276560574769974 0.0 0.01409885287284851 0.003656715154647827 0.1268462985754013 0.0 0.1788107454776764 0.0 0.0 0.0 0.13437552750110626 0.0 0.3208548128604889 0.0 0.2419670969247818 0.0 0.14205029606819153 0.0 0.0 0.0 0.09634941816329956 0.0 0.0 0.0
47684 0.0 0.0 0.0 0.0 0.0 0.025125406682491302 0.0 0.08010362088680267 0.0 0.08720709383487701 0.0 0.0 0.0 0.0 0.0 0.0 0.35044795274734497 0.0 0.0 0.004982709884643555 0.0 0.0 0.0 0.0 0.0 0.21174106001853943 0.10016344487667084 0.0 0.009560927748680115 0.0 0.13220997154712677 0.0 0.09850827604532242 0.0 0.0 0.0 0.15977743268013 0.0 0.32778626680374146 0.0 0.17831522226333618 0.0 0.17236557602882385 0.0 0.0 0.0 0.10453222692012787 0.0 0.0 0.0
267003 0.0 0.0 0.0 0.0 0.4787300229072571 0.20736078917980194 0.0 0.22975513339042664 0.052402563393116 0.0 0.0 0.0 0.0 0.0 0.0 0.0 0.33738625049591064 0.0 0.0 0.020733878016471863 0.0 0.0 0.094037264585495 0.027981847524642944 0.0 0.3686051070690155 0.0826062485575676 0.16370677947998047 0.1232575848698616 0.0 0.0 0.0 0.0 0.0 0.0 0.0 0.0 0.0 0.0 0.0 0.0 0.0 0.10233533382415771 0.0 0.0 0.11392094939947128 0.06539785116910934 0.0 0.0 0.0
463 0.0 0.0 0.0 0.0 0.1271040141582489 0.05584486573934555 0.0 0.03302866220474243 0.0 0.0 0.0 0.0 0.0 0.0 0.0 0.20844249427318573 0.0 0.17381685972213745 0.0 0.0 0.0 0.0 0.15315602719783783 0.20600691437721252 0.0 0.07071253657341003 0.0 0.2119779735803604 0.18579119443893433 0.0 0.04713691025972366 0.0 0.01241883635520935 0.0 0.0 0.0 0.0 0.0 0.0 0.0 0.018394693732261658 0.0 0.22210106253623962 0.0 0.0 0.0 0.10029822587966919 0.0 0.0 0.0
58454 0.0 0.0 0.0 0.0 0.2564167082309723 0.0 0.0 0.197819322347641 0.0 0.0 0.0 0.0 0.0 0.0 0.0 0.3117987811565399 0.0 0.24393869936466217 0.0 0.18902996182441711 0.0 0.0 0.0 0.04589219391345978 0.0 0.0 0.05119277536869049 0.0 0.311128705739975 0.0 0.0 0.0 0.0 0.0 0.0 0.0 0.0 0.0 0.0 0.0 0.0 0.0 0.31444960832595825 0.0 0.0 0.0 0.14483174681663513 0.0 0.0 0.0
504 0.0 0.0 0.0 0.0 0.0 0.023942671716213226 0.0 0.0 0.0 0.0 0.0 0.0 0.0 0.0 0.0 0.1964183747768402 0.24239803850650787 0.0 0.0 0.3655579686164856 0.0 0.0 0.3419080674648285 0.13168147206306458 0.0 0.0 0.2539733648300171 0.20381049811840057 0.0 0.000969618558883667 0.23419809341430664 0.0 0.21284808218479156 0.0 0.0 0.0 0.0 0.0 0.0 0.0 0.11993579566478729 0.0 0.2809646725654602 0.0 0.0 0.0 0.14267058670520782 0.0 0.0 0.0
1102364 0.0 0.0 0.0 0.0 0.0 0.20256443321704865 0.0 0.002674289047718048 0.0 0.06151310354471207 0.0 0.0 0.0 0.0 0.0 0.1970328390598297 0.3341618776321411 0.0 0.0 0.3510031998157501 0.0 0.0 0.28727176785469055 0.13887949287891388 0.0 0.0 0.19973860681056976 0.3285459280014038 0.0 0.0 0.30604231357574463 0.0 0.14405322074890137 0.0 0.0 0.0 0.0 0.0 0.0 0.0 0.0 0.0 0.19154198467731476 0.0 0.0 0.0 0.09773826599121094 0.0 0.0 0.0
1112650 0.0 0.0 0.0 0.0 0.0 0.19399042427539825 0.0 0.007978841662406921 0.0 0.07484547793865204 0.0 0.0 0.0 0.0 0.0 0.11224175989627838 0.27295053005218506 0.0 0.0 0.2689865231513977 0.0 0.0 0.17892026901245117 0.12991593778133392 0.0 0.0600101612508297 0.21728911995887756 0.3142814636230469 0.0 0.0 0.3076234459877014 0.0 0.13607627153396606 0.0 0.0 0.0 0.0 0.0 0.049663349986076355 0.0 0.0 0.0 0.14635227620601654 0.0 0.0 0.0 0.09345012903213501 0.0 0.0 0.0
506 0.0 0.0 0.0 0.0 0.0 0.01617094874382019 0.0 0.0 0.0 0.0 0.0 0.0 0.0 0.0 0.0 0.03311096131801605 0.2089800238609314 0.0 0.0 0.5356637835502625 0.0 0.0 0.3345041573047638 0.0 0.0 0.0 0.2897069454193115 0.35197484493255615 0.0 0.0 0.3066101670265198 0.0 0.23141247034072876 0.0 0.0 0.0 0.0 0.0 0.0 0.0 0.0 0.0 0.2705325484275818 0.0 0.0 0.0 0.1631869375705719 0.0 0.0 0.0
89416 0.0 0.0 0.0 0.0 0.0 0.0 0.0 0.0 0.0 0.0 0.0 0.0 0.0 0.0 0.0 0.01490822434425354 0.3599836826324463 0.0 0.0 0.5221946835517883 0.0 0.0 0.3388122320175171 0.0 0.0 0.0 0.33914726972579956 0.208220437169075 0.0 0.0 0.334628164768219 0.0 0.1904546320438385 0.0 0.0 0.0 0.0 0.0 0.0 0.0 0.0 0.0 0.05921468138694763 0.0 0.0 0.0 0.07611342519521713 0.0 0.0 0.0
1106546 0.0 0.0 0.0 0.0 0.0 0.0 0.0 0.0 0.0 0.0 0.0 0.0 0.0 0.0 0.0 0.15500158071517944 0.20126768946647644 0.0 0.0 0.4417746067047119 0.0 0.0 0.3619872033596039 0.0 0.0 0.0 0.29898038506507874 0.20568695664405823 0.0 0.0 0.19525931775569916 0.0 0.22371752560138702 0.0 0.0 0.0 0.0 0.0 0.0 0.0 0.09516876190900803 0.0 0.3073350489139557 0.0 0.0 0.0 0.14393964409828186 0.0 0.0 0.0
10796 0.0 0.0 0.0 0.0 0.0 0.0 0.0 0.19860459864139557 0.0 0.0 0.0 0.0 0.0 0.0 0.0 0.05012344568967819 0.21141603589057922 0.16064755618572235 0.0 0.0 0.0 0.0 0.24697372317314148 0.47061580419540405 0.0 0.14735662937164307 0.0 0.2634301781654358 0.0 0.2816772162914276 0.17791014909744263 0.0 0.0 0.0 0.0 0.0 0.0 0.0 0.0 0.0 0.0 0.0 0.14155317842960358 0.0 0.0 0.0 0.24567893147468567 0.0 0.0 0.0
